<?xml version="1.0"?>
<opencv_storage>
<opencv_ml_ann_mlp>
  <format>3</format>
  <layer_sizes>
    60 128 8</layer_sizes>
  <activation_function>SIGMOID_SYM</activation_function>
  <f_param1>1.</f_param1>
  <f_param2>1.</f_param2>
  <min_val>-0.94999999999999996</min_val>
  <max_val>0.94999999999999996</max_val>
  <min_val1>-0.97999999999999998</min_val1>
  <max_val1>0.97999999999999998</max_val1>
  <training_params>
    <train_method>BACKPROP</train_method>
    <dw_scale>0.001</dw_scale>
    <moment_scale>0.10000000000000001</moment_scale>
    <term_criteria>
      <epsilon>1.0000000000000001e-05</epsilon>
      <iterations>2000</iterations></term_criteria></training_params>
  <input_scale>
    0.00084958095186731539 2.5674391029619329e-09 0.00090781971594630076
    1.2348241488019742e-10 0.0011956775377617939 8.4668743176791071e-11
    0.0012945715782164398 -2.4797514636770343e-10 0.001613733172916351
    7.4318066026226129e-10 0.0018068045123277553 -1.9366500183749388e-09
    0.0018975715495886043 -4.134582412339918e-09 0.0020624213974113599
    2.0152097279368241e-09 0.0021688229046548145 -1.5623119077019752e-09
    0.002280696317150205 -2.6711647495899045e-09 0.0023649436384718683
    -2.9638085358371061e-09 0.0028046007991450101 1.7859747261732372e-10
    0.0028599727235975462 1.085456456424931e-09 0.0029113755901123196
    -7.4752034153521008e-10 0.0030681989527109729 3.4387487101575965e-10
    0.0031479389666029941 1.3363753068688371e-09 0.0032917182853344999
    3.4712608301957524e-10 0.0033910643321086505 9.726098556687537e-10
    0.0035298264055189316 -2.9095518915722674e-09 0.0036228023206089414
    2.116909527237831e-09 0.0037643666479238581 -3.43272640143893e-10
    0.0039135844914179024 -1.4325036233733674e-09 0.0039956003411489695
    2.0243288814882184e-09 0.0040123473499490562 1.5637027517908801e-09
    0.0041267343447608136 1.1972765684847563e-09 0.0041909600347846332
    -2.9485020922990839e-09 0.0043209842062124993
    -1.6289533267659251e-10 0.0043852615152980426 1.5370152559672938e-09
    0.0044765440182574076 -2.2622925940290212e-09 0.0045761834439642301
    -4.8199572473489551e-10 0.0046611119666587365
    -9.7416465319208948e-10 0.0047419902306810148 -2.070311617491403e-09
    0.0048043217208908629 1.0132734553675454e-09 0.0048917392904849789
    -2.0793080179601674e-09 0.0049525285455036963 4.014129779224916e-09
    0.0050244732987427742 6.1752153427259233e-10 0.0051046281796399062
    7.0213742159512031e-10 0.005196698823813321 -1.4031291907776422e-09
    0.0052404589440708032 -1.5677853093725897e-09 0.0053080377480803735
    -2.0931688992251007e-09 0.0054086394406355721 1.0938878028475942e-09
    0.0055047659291516905 8.1238679401952495e-10 0.0056473710554236561
    1.7204487889971214e-09 0.0058007876431406232 -5.1419808819073311e-09
    0.0058414753934564832 -2.6790444784486393e-09 0.005869929878764172
    -2.0005677953200623e-09 0.0059797114308222333
    -2.7416813514884772e-11 0.0060778091448935407
    -1.3871368673684793e-09 0.0061309698299605473 2.3675143877207189e-09
    0.0062100096608132364 4.4884086706081918e-11 0.006226595136004133
    5.9793809700051894e-10 0.0063325128861888838 -1.4646241045047856e-09
    0.0063731008022735224 4.2207378826363369e-10 0.0064889959195284196
    3.2727055877361211e-10 0.0065220209219063732 1.3356801845102034e-09
    0.0065680927846517309 6.4939674784548097e-10 0.0067466794893200699
    -2.3629635566868071e-10 0.0067957280437543725
    -7.8652886495653712e-10 0.0069034957269381199 1.5386553811901796e-10
    0.0069735131404219681 -2.5791849539556812e-09</input_scale>
  <output_scale>
    0.52631578947368418 0.49999999999999994 0.52631578947368418
    0.49999999999999994 0.52631578947368418 0.49999999999999994
    0.52631578947368418 0.49999999999999994 0.52631578947368418
    0.49999999999999994 0.52631578947368418 0.49999999999999994
    0.52631578947368418 0.49999999999999994 0.52631578947368418
    0.49999999999999994</output_scale>
  <inv_output_scale>
    1.8999999999999999 -0.94999999999999996 1.8999999999999999
    -0.94999999999999996 1.8999999999999999 -0.94999999999999996
    1.8999999999999999 -0.94999999999999996 1.8999999999999999
    -0.94999999999999996 1.8999999999999999 -0.94999999999999996
    1.8999999999999999 -0.94999999999999996 1.8999999999999999
    -0.94999999999999996</inv_output_scale>
  <weights>
    <_>
      0.084381769697661355 -0.11299977113578893 -0.046637883305866885
      -0.028252817126562312 -0.029103684097346545 -0.10774221131058592
      -0.037335440533537219 0.03909494452180251 0.021158324076718645
      0.090250016059411284 -0.064738730953326454 0.044264987945317455
      0.067315091715597658 -0.06419344095490416 0.067470406456730511
      -0.18808922127032326 -0.10920457005654326 -0.08325676615622106
      -0.13187677011754112 -0.098745019718825808 -0.035804644106327679
      -0.073753884935521777 0.026087567817771603 0.031157150903838193
      0.13870676996796394 0.0068690191280304548 -0.082453108349459653
      -0.093054336909553767 -0.001319142079059341 -0.047210369738451247
      -0.035001828627785322 -0.011156944565303412 -0.14720582754315262
      0.017118043107615877 0.052716238854685328 0.0054055765596552246
      0.14888597432866621 -0.039642664337017547 -0.12607058861768297
      0.15097674257741467 -0.10646681902078418 -0.090085679847004482
      0.039335105549933178 0.10630132994318855 0.019917989267349025
      -0.064857346766631269 0.14460301084315405 0.118594837510846
      0.15621546040759854 -0.066002064992660037 0.061700675798500727
      0.041088726803595189 0.049436938188699743 0.13696297873527094
      0.068666151457477898 0.030629755240840471 -0.053930743805092204
      0.037310201836950219 -0.080412488570539217 0.096186323678286514
      0.044183442033916158 -0.017227532206292882 -0.14481393970906353
      0.10782276788808641 -0.15130824722245942 0.060063953125331658
      0.065292345628502765 0.040857965212099369 0.064419719840028533
      -0.05708146621017287 0.063003475822681607 0.13211506730497533
      0.10263539210501084 -0.049885722604730287 0.054683584402910095
      -0.18341379083231985 0.0068694119613716825 -0.014261438300631717
      -0.13517552945274311 0.10523859333710128 0.048816769637978895
      -0.1867214142269297 0.01091520284399752 -0.12026345479161762
      -0.10675596536251843 0.034684336346191932 -0.037742918799901055
      -0.075887390668839039 0.078373157458073578 0.065893926691802066
      -0.096865411767483645 -0.24978727172653653 0.039614279963983916
      0.08895789748572161 -0.051382174882153894 -0.037092749300372659
      0.15639122728407226 0.083707890374832269 -0.13939066430837685
      0.13014077888104347 0.15227611241161709 0.22099489109557138
      -0.11813094354306952 -0.0070866038192757318 -0.055921350863766803
      0.11579021971865243 0.096169559927554452 -0.076500748965349391
      0.19663154437269462 -0.061748683918448698 -0.15442006092051103
      0.072772558313654451 -0.0051717405943144563 -0.013949675223917456
      -0.11264570849252666 -0.11186653124958491 0.075124164287280762
      -0.12469809282898063 -0.0075689167751943186 0.07426590332807502
      0.14278216723565135 -0.035276801767542262 -0.16537937997411431
      -0.10079164814541869 0.08648195220572602 -0.022186513473031775
      -0.16941481908109707 -0.033814720399149803 0.008938925097912654
      -0.17987341714709898 -0.19298388446515757 -0.25694509210950073
      0.055689586796000987 -0.19077014935396192 0.025753679965472551
      0.23870971990005632 -0.10282461993103183 0.26909175407280267
      -0.26056962190791128 0.2840750319998776 -0.14840988390372606
      -0.10024433624075664 -0.051457168307654476 0.072309146614322348
      0.19843253712460959 -0.12233708815555486 -0.060249398712099521
      -0.22190965059735407 0.11576167830317861 0.17613352165696339
      0.074016655695907083 0.10565741593020268 0.17489045882532428
      -0.1445503912954467 -0.057403484644119526 -0.13152683074370827
      0.12857725963289537 0.2603523610864778 -0.27868797522848121
      -0.092902947457730575 -0.10493736997729725 -0.020222696360074843
      -0.098008018472565711 0.36390366605869084 0.22306264010739826
      0.37553940876815106 -0.16463446673017776 0.2334569667973361
      0.19995624127062173 0.033703080629654533 0.28863271005996494
      0.19250430584397815 -0.12003289596458473 0.0061625551731005626
      0.062014762973091019 0.35957131429518657 0.29797861249470381
      0.14136841964270899 -0.16059861630635761 -0.09637973421924502
      0.016260861755718913 0.44544705893245906 0.17791073047699574
      0.036451687874209569 -0.26305987126350194 0.0054721960127110418
      0.073281921085185539 0.17520239122477865 0.059724113441823573
      -0.062941851277206085 -0.18955862186636355 0.059665661707644764
      -0.17354695564144179 -0.0099225309052123865 0.1624021504195452
      -0.10356980280730652 0.00036216908017304704 -0.18277857178282175
      0.055050506427009732 0.13757847624987424 0.033050676943302291
      0.0055176034715985521 0.073565906137901524 -0.22042743494638131
      0.0075331384529312767 0.063659079149013018 -0.16125248861885494
      0.089830476347153354 0.37851349298448439 -0.12345500165169215
      -0.026934320445959063 0.068434525140412192 -0.19807439755607445
      -0.020770020730401042 0.09985817315531241 0.15632620118327062
      -0.13425817964124834 -0.078762732396724586 0.10465046555370912
      0.065444930718903976 0.25288710920559199 0.14323298310479718
      -0.013232302226133743 -0.30387763448033178 0.21229327017997601
      0.10896761561946446 -0.198640015101226 0.20669752524862364
      -0.017079507440320354 0.16859772796154923 -0.12374769692164884
      -0.096220239958749273 -0.0045910010332015829 0.15214048315954154
      0.11656633397847585 -0.072834928679371913 0.11749722755304921
      0.017363596457834311 0.080674141477544217 -0.10250417640767351
      -0.31785690237308417 -0.20394597050000293 -0.23159521624774956
      -0.07159989641099325 0.36726310942483181 -0.22951900574151299
      0.033943640844495034 -0.12059283490196622 -0.029350614753627841
      0.15084744532407612 -0.10509874477139433 -0.01506882950929932
      0.048341471770405861 -0.088046274017656606 0.039893505937888832
      -0.055278383820446857 0.13177830452805664 -0.070523823473985434
      -0.12275927950669319 -0.018090891047689236 0.11693898285663099
      0.091286310431342013 -0.0025306305013989188 -0.068069313482967367
      0.0040123836769248786 0.092635782649135176 -0.046222393192057308
      0.059343453557650028 0.053540066294764384 0.16563622294553976
      -0.040694236319843494 -0.12539720535876542 -0.026462789252397808
      -0.13201952422948893 0.047544677454882611 -0.024970030867711442
      -0.020069764563954144 -0.015131764489273326 -0.060348105138832084
      0.1533906607696931 0.098335194888972785 0.021483974012411856
      -0.046001512051949092 -0.078913910302788937 0.0073265911010030544
      0.09536815032015955 -0.21985909809973883 0.0095004441976986303
      -0.0066522069095679539 0.034256090840397546 -0.047562720519986335
      -0.13346843132051558 0.20620908405226251 -0.0093465681859087636
      -0.036634441071731673 0.30275703779872304 -0.082436620812120956
      -0.10778506196117292 -0.087855286169543634 -0.003526887283797837
      -0.21593399962101451 0.0010474926781983303 0.23221110073663051
      0.063543669187092311 0.10422915166119018 -0.045309234861324391
      0.061111918421085917 0.071394207573012305 0.11585417838229131
      0.1589970045250409 0.17728434576471636 0.17607329364167595
      -0.16804805471786208 0.19713112175444628 0.058845857963119974
      -0.0022273599541635519 -0.14289869749612905 0.13238888810953892
      -0.12188000070148268 0.083092533870366414 -0.039534926789519621
      0.10311460540581122 0.1135416000986397 0.16518588423645525
      0.12278589896699148 -0.087054411874442239 0.15986433315341544
      -0.064035932673581347 -0.18726771098254597 0.010403196513153275
      -0.11317289145498811 -0.026954719460987125 0.11024734775343385
      -0.24266462787547724 -0.1337977520703745 0.024714960347929991
      -0.075604400967670446 -0.042977098437287614 0.080751675742892701
      -0.11459123351922883 -0.10166813852519112 -0.1334916083494842
      -0.032028756980221382 -0.026438951291994556 0.10595344066172024
      -0.10689323045157051 -0.12580554982786107 -0.11502816460075667
      -0.0033105342906417719 0.0036860970070308236 -0.067247184798344864
      -0.037095606266097265 0.066779130185780036 -0.072977412612087844
      -0.13054475585758518 0.093322699481269811 0.16600877619668225
      0.22769961406030464 0.058875788572100803 0.02468810768167852
      -0.015182454124245202 0.11375105968970059 -0.010259246237236277
      -0.0071453198395014733 0.091839836138613878 0.01265946159362903
      -0.093031328380562106 0.078701013439595069 -0.021752115848235398
      -0.094638731465741366 0.043901011690326383 0.11079890964981867
      0.040732073769813873 -0.14534209150871999 -0.086260754562868663
      -0.012366979769008876 0.12014615912189902 0.066422378005655161
      -0.15045352594716052 -0.038289007615282471 0.087681804733894794
      -0.13956419464036871 0.027304896720705369 -0.097231361469795136
      -0.073036364910090593 -0.12754661251633315 0.05693438008183193
      0.10851390402915324 0.014664008527149729 0.065522272043545229
      -0.19121974692454674 -0.021837705565867598 0.10262390896623325
      0.089236127843349111 0.084874653847982193 -0.12101657850367531
      0.02765916302362452 0.022316695785900165 0.077523472189203357
      0.048532318332463908 -0.035375387722212812 0.0014151710741095128
      0.067856597620350137 0.056428771518797535 -0.063426766466196355
      0.0097688444474422053 0.025771726535757395 0.11000479273399011
      -0.15027569215527178 0.19483133897633784 0.060264206666801386
      -0.021340812327121494 -0.068092397118669143 -0.064464393187753724
      0.16978105456281731 0.17609132142839262 0.07708500875851218
      -0.0018785321254543277 0.057631273196047224 -0.048768243235174293
      0.03266395527559271 -0.059459728674479691 -0.041300685550494931
      -0.052109551638759501 -0.10210354806462384 -0.076941385156715197
      -0.0093084505188076195 -0.055858017623820741 0.010299020920839752
      -0.037469039415737523 0.036290390867134099 0.03886977470772518
      -0.14387619395832804 0.040866537556344479 -0.087973473199485563
      0.13832159419113621 -0.016407919799017595 -0.027826025340694491
      -0.055587903741516537 0.01215525825018015 0.10184199243254495
      -0.10563239884225985 0.0094164354815208517 0.039170226187562919
      -0.046952570990236538 -0.0064793784021884588 0.012907455038460145
      0.011992604388080143 0.062999273527501287 0.0054872666123811286
      -0.066914510865094534 0.16523407597760384 0.063464106192818212
      0.016406760632867778 0.053961036943484232 0.0052788205602717674
      -0.07321181102756337 0.070238286888887905 -0.14874147124599252
      0.0459938229686555 -0.044078040226485989 -0.11884616144156376
      0.092918380912061255 -0.07422839753408865 -0.059982796933136184
      0.1809721415806709 -0.072836939107647963 0.0061116497481448744
      -0.015117512702797589 -0.10964098800290323 -0.11263530811186527
      -0.092193175369310265 0.020440805240092529 -0.044193131100949357
      -0.00025506853311940149 -0.19434195362387388 -0.21279696409698148
      0.0064396058871920587 -0.04854158287080082 0.074225355783735417
      -0.10302402343281584 -0.036520248153556541 -0.070082225806465559
      -0.13917646276804654 -0.022326574542914656 -0.050754706589234949
      0.065227125288825571 -0.044233297059316348 0.078319788732043483
      0.14369125620610332 -0.011433805365054527 -0.046825336330259808
      -0.0018678898965025148 0.043906764650049154 -0.067237725383842442
      -0.042277547252417585 0.10387061785583186 -0.059836033317748623
      0.13724694348742209 -0.061385829092394983 -0.12590449196744247
      -0.07243987805198121 0.12304201745558503 0.065462933439835003
      0.027472747307311154 0.0017423120617634203 -0.11613345150953425
      -0.0070060069687308867 0.079337657388271782 -0.060336143500907546
      -0.077431191264014668 -0.026936550355840413 0.016477810077159358
      0.0094580941593341329 0.03511414520273512 0.0088720472783935349
      0.06371046487312429 -0.011697401724464374 0.022907672971949025
      -0.045162599208835003 -0.0078324334176940423 -0.015631883122827876
      0.018704152824777762 -0.030713610824638145 0.060327391936076592
      0.045647596581617225 0.001834057431852907 -0.2124056915571676
      -0.05383293892314233 -0.046516565381267042 -0.14783508647168431
      -0.017467160889548229 0.002827919196210484 -0.050455471192056525
      -0.022342027414254517 0.11782179119051499 0.052126078450153414
      -0.046843629560652834 -0.028302839246383209 -0.027252196666860958
      -0.0050443337281786899 0.076334722347100384 -0.0031780138076306459
      -0.023976523983183885 -0.046382338455221911 -0.012625374027628544
      -0.070036689586042589 -0.13983223914109 -0.053120597282421307
      -0.11060789628396973 0.030997624422584472 0.057972909803594951
      -0.018387524282350642 -0.13004407646032834 -0.082275992850599236
      -0.058263637159358936 -0.087109257676119517 -0.080169925850299431
      0.080455104195447741 -0.10338107358135809 -0.017973635788894018
      -0.12435133471558903 0.074683851874762425 0.037841635471764661
      0.060700359738131232 0.060797510371675377 0.0014082177861880017
      -0.013533734383855186 -0.11296544851771578 0.114623218244418
      -0.018715730434453907 -0.049603107495176782 -0.069649439376818653
      0.022085013252436916 -0.038398980016823833 0.0031962611285876745
      -0.14638020255992698 0.043848416738728267 -0.013152294274108797
      0.14076051285959762 0.041139044352738012 -0.017448194222606107
      0.080815641023686907 -0.09395909216434932 0.11076072087919807
      -0.15476675889253844 0.031226315767703794 -0.015303143600227536
      0.16730102479218159 -0.040322993117674621 -0.010182101781562104
      -0.047523373433271676 -0.069650765287567057 -0.10434490770813902
      0.12917279570499943 -0.10997120191531344 0.056202690332811403
      0.12960430167731635 -0.099162288552771816 -0.0202331857098519
      0.17294087275761275 -0.071290774605319615 -0.057255167139621831
      -0.10747868035449837 -0.14139104204178091 -0.042540600476352164
      0.063450143210604146 0.004583724378216524 0.040758062056781376
      0.047835693834030177 0.042199172425763938 0.00038770990542431205
      0.050546382062338489 0.13040287388735711 -0.010122840396398448
      0.10048417850722709 -0.074541957857165747 -0.031218095136927075
      -0.13143814084957248 -0.0021649522226909941 0.14448758506170431
      -0.06863830164021098 -0.1862170470781021 0.1120873519456525
      0.015723229835115229 0.17231451098685466 0.040577326040167935
      0.036464392087036779 -0.14633858899249719 -0.054870937743595541
      -0.12619412438930327 0.084290204370684366 0.14566424462012231
      -0.034988230732917507 -0.037229121410035933 -0.089142881693065598
      -0.003665265168096345 -0.10657234592837726 -0.047758641635748389
      -0.025832121831956198 0.024314896152415593 0.10612779648183246
      0.013675282152183891 -0.05082266751723688 0.00036783976534974692
      0.034118666179521952 0.094276257304352615 -0.056368873882384284
      -0.14318200135461143 -0.12640912546286709 -0.05479522713421154
      0.031952022245774606 0.039187824423702181 0.051896662231448641
      -0.15903409489409256 -0.098355149632938996 0.050588036520534882
      -0.042366286577202393 -0.069857122356439483 -0.013986869060994863
      0.041142261339224377 -0.011732444969757685 -0.050945898412347888
      -0.026752208188642899 0.049794317499941704 -0.081488532253101917
      -0.053259178485591772 0.02468546675671044 0.016662312656395912
      0.10990436943957685 -0.17041293723335271 -0.11194291463934729
      0.036893163464748024 -0.041405748489782013 -0.011305843194638291
      -0.047849756660912915 -0.023051568558547231 -0.029646303196532664
      0.069247775608844542 -0.066428064513363944 0.030734693132367423
      -0.044199207122036538 -0.075970367617732154 -0.10143877992575275
      -0.075579690502551658 0.013197420568548458 0.024862379883197932
      -0.046525220789347739 0.017086372298435785 -0.070512961263024754
      0.14171651526969062 -0.0282397506014677 0.05904929064795391
      -0.041292841856187382 0.066712679155651794 0.066951825796831538
      -0.085822800001168431 0.17078448840899502 0.020062871556345317
      -0.044721037316240594 -0.084127515438555914 0.079314087194045091
      -0.018196745130996395 -0.02602341062046655 -0.093997075089698054
      0.031795603514534705 -0.035895654522067437 -0.014455008542320782
      0.029472695829128211 0.00062579586862951517 -0.046450045093306858
      -0.0531163474924818 0.080357663602669799 -0.070306979607221168
      0.045879650016569531 0.0022061005949045682 0.070282704069308824
      -0.041949463750231272 -0.11674235910372054 -0.06950828453321671
      -0.078459922494275705 -0.057247153157410066 0.11353785425019144
      -0.061736886903137438 0.10406441657952575 0.038784776281242828
      0.013847309571397281 0.063559038854654873 0.059526002230371619
      -0.080333323717950211 0.011671319082592764 0.12313986818668853
      0.079567167481639722 -0.034104544856388586 -0.02458237971989188
      -0.017636514642500319 0.04152479707982213 0.1332322008436653
      0.05265993807557863 0.019212363594793946 -0.00088866379631747608
      -0.073182352801882219 -0.0043398672333600005 0.065645810783334937
      -0.039303452561581957 -0.083125750440024668 -0.018297186193206579
      0.042521513791120367 0.0097048291140892032 -0.032460456382516052
      -0.082204715543647403 0.086966016820902825 0.017487991815591929
      0.054769667122881151 0.033060688240483666 0.10904463270976299
      -0.065011916379952656 0.036443873998815268 -0.11319680103818305
      -0.063749212273512088 -0.030862116646690904 0.033014759169814445
      0.06975108207244396 -0.053729074836674988 -0.080692501248742401
      -0.023563537205619264 0.1475488032248749 0.016576840829874106
      -0.017337256959602091 -0.11047236811007109 -0.058607630276283296
      0.048708739309314492 -0.046238271860101335 -0.045727139265656219
      0.015603270200009022 0.019047401058451863 0.031542743811819617
      0.10898561455735259 -0.082731050838260031 0.032185819007569345
      -0.085483685468187257 0.039643116438263779 0.077209355834295501
      -0.031347212734802503 0.017740390601621973 -0.010293749221734382
      0.050006124546439996 -0.048563089922239386 0.030707947971914364
      0.094819023637886066 -0.0071964768367427032 0.033150141994316394
      0.0080894392493825983 -0.013939195182229606 -0.0053547231346820021
      -0.10349369464373569 0.065409683188895756 0.04981761720653223
      -0.079450254041877305 0.035803997056824077 -0.039820610779591273
      -0.089291545573389627 -0.07434674086730067 0.069529814086293065
      0.091841994917952141 -0.0027199763832481353 -0.093777256772200529
      0.0091447825707714082 0.043382783963817909 -0.046887446447942772
      0.095694099750543632 0.048930029351867861 0.04326063650062479
      -0.11253652792312663 0.031787377598457116 0.12380370659601693
      1.0390999299973811e-05 0.11108277008433291 -0.025077876293818052
      0.078003674356901101 0.065871755425510825 0.1517683676512355
      -0.028851871896541453 -0.035670596850269194 -0.094753578951547388
      -0.047938585211884967 -0.013355442791901801 0.11966957279412388
      0.010082269664891709 0.045143608352632494 -0.11523221979719266
      0.018518438366099853 -0.11374036664870947 -0.061003169072213002
      -0.00063231943693579495 0.030960671912989398
      -0.0084448685090454563 0.013083849623914599 0.0055382465058060083
      0.040101556873670306 -0.014853531421187212 0.0099048003393156243
      0.066290322175660513 -0.10873264960443174 -0.051621150592026023
      -0.064064794379852685 0.0020979657252831779 0.071703333655003781
      0.076450504825033447 -0.10650048778819883 -0.044969223019279962
      -0.017336992238220283 -0.023061314994754299 -0.027891175731444468
      -0.009077732813667385 -0.068571281560797878 -0.018100466228449436
      0.010564371544862682 0.023744729528698161 -0.11672335361165997
      -0.022435580436014367 -0.0024583181756948711 0.012776214476822203
      -0.054344282591729208 -0.032258060168155293
      -0.00086976597835004452 -0.051890435690015266 0.073405715169891056
      -0.067726921716651997 -0.0021475312260368228 -0.049865339093285846
      -0.067477266500761385 0.01322295134904823 0.075374026654682694
      0.034278113919500294 -0.082428932546990338 0.10974122090718727
      -0.025713064504050261 -0.016798961133669375 -0.082675471024553429
      -0.098714159968101053 -0.058832958374972093 -0.099928567473246924
      -0.080016261727774915 0.088141825340803961 -0.097799664909679548
      0.078073870120907315 0.094670185367569798 0.08988390140562999
      -0.023326499452477511 -0.12868776587036107 -0.1075691284214747
      0.00080460143485264375 -0.088539525948199388 -0.013052813549569513
      0.01465964073011297 0.018759627224729139 0.089237902925671894
      0.15298491172225992 0.16145284684990557 -0.031686656661227282
      0.19282310064961525 -0.05633044123355313 -0.095271801135435055
      0.12355392742681828 -0.10900868872410396 0.18401388607503436
      -0.15507754258061857 0.17752351724673757 -0.014961553783052634
      0.12597432587375632 0.1011334857649827 -0.10318952740441083
      0.10302764691058747 0.11221939305347693 0.1016513311912145
      -0.081578212110912054 -0.11322912830222832 0.042192001001248397
      -0.076344421104406937 -0.1691986928872842 0.11027413580967385
      0.012950509712283582 0.14274299976784488 -0.085563118164036653
      -0.30866536372587833 0.42332469219942476 0.16056291506025513
      0.035918927703024336 0.13074662544260721 0.19038363009143192
      -0.14836713201003784 -0.15406008295828871 -0.13420282778387399
      0.065054987394490019 -0.088209452662679294 -0.233014699353181
      0.058056674785968147 -0.12200197763152397 0.0067165451377220707
      0.15839505967619882 0.075544622424679672 -0.12484134642310278
      -0.13687939515460013 -0.16427849090512187 -0.074490243713802085
      -0.085173977895241643 -0.027890718987467804 -0.041982956572993779
      -0.37411955476576519 -0.075232653009066175 -0.084950714671092581
      0.38366051635730813 -0.10845823918136138 -0.010755411253260931
      -0.055776290094967353 0.041728574716294979 -0.03812785128247119
      0.18220556383687531 -0.052692699591157424 0.19218639274791496
      0.025545448650786076 -0.10550372344401719 0.0071129412679390462
      -0.019882118370068057 0.11791474269024178 -0.05857445212749559
      0.068934202028198707 -0.095617252859690596 0.11458679605051122
      -0.14029381684803707 0.14656758706723544 -0.11306521266100367
      0.063139970357269135 0.16068583734720529 -0.077939901927163574
      -0.23811095111744485 0.16230424274645036 -0.04561689634486317
      0.029934126987166843 0.033114326065176579 -0.093688604874339915
      -0.013137889824980729 -0.070890920074416067 -0.038249610519711354
      0.17872870187153161 -0.10000395035220978 -0.053833299709377183
      -0.18203332015164492 0.0095138213331168783 -0.0052991347642486865
      0.21804373156252027 -0.14405042293573553 -0.14370181491553813
      0.070472390181946981 -0.2538663195720175 0.046608658468768653
      -0.071914402350398435 0.090146269747697447 0.018411561440682674
      0.044241235304300783 -0.074333755535718665 -0.0092857624277980031
      -0.05310732701941237 -0.12511422258214402 0.054032006207393277
      0.061990410838003246 0.012515885581092481 0.22871892501885807
      -0.0066310881135684578 0.1859853847397874 0.018566080406109374
      -0.11675389253630006 0.13089824400503311 0.080094487434975617
      0.03083773941029078 -0.07285311242389686 -0.11353698521125376
      0.043153084675842307 0.10794750662609164 0.049603721504390692
      0.12131024441514693 -0.15595803502088004 0.0036653950621484167
      0.080552250803450937 -0.018881879622147851 -0.076603277340473855
      -0.13813048760223354 -0.077995087774899108 -0.086048766614437944
      0.037099333403686374 0.060161569223090967 0.0065418110083643186
      0.02440489800797228 -0.043457016692445109 0.052727979327880072
      0.068664788978044566 -0.19052068554047247 0.085459045736816772
      -0.059078632302443673 -0.031776723244507706 -0.02620677574402799
      -0.031619247900252792 -0.04682062710828068 -0.022054055132205562
      -0.030286244504114802 0.047945308745255627 -0.12935015305144831
      0.013893621864585294 -0.092376784558057395 -0.042433539309972006
      0.00069196745359043131 0.071268760119167621 -0.12393952741510647
      0.027213104701367893 -0.01844245541629868 -0.13254211715447139
      0.078044857208857107 0.06817985919432229 0.089786702364459708
      0.010566564259668149 0.14449112452585394 -0.07442637304133902
      0.083542534483436931 -0.048005720435714785 0.058350337939642574
      0.026917653685307893 0.11035801332040988 0.093450260582121081
      0.077429581148622029 -0.0024920573125856499 0.089060185582789331
      0.150883583463221 -0.072260425266630096 0.0014446467033010233
      -0.14726986910490239 0.028926649126818575 0.035048443081167793
      0.041438038890274378 -0.010238216990632779 0.019830127339203363
      0.048322081571784456 -0.029872814026000571 0.10161417542746311
      0.074136810521111304 -0.027020045035974119 -0.06788228503131094
      -0.0017999710561433845 -0.080823566262865368 0.065969790313168353
      0.024228523848364839 -0.18635071104308795 -0.067025877564816691
      0.024906174916630681 -0.038414350786348965 0.17319826116370354
      0.10258886816577573 0.035524445271759797 0.097853915647844694
      -0.12689409941887411 -0.10013301460508248 0.13556779368399036
      -0.099086155390486957 0.069409952378265194 0.0275581610414063
      -0.12122883969083278 -0.025907015805473717 0.038477601173057339
      -0.026393335496934713 0.040666859376194832 0.034015212367136428
      -0.0033236393862718732 -0.028863143430504386 0.20600587685401411
      -0.035844725994745121 -0.046741643746184891 0.14465536718416089
      0.093557335385997045 -0.02326867592157628 -0.083411027178638228
      0.1558860020513631 0.10322834616238638 -0.037228919440610519
      0.10377750675108391 0.12286968246429188 0.18173643158416478
      -0.1049477428378304 -0.011836739496073953 -0.0049448139688729065
      -0.059772423336700048 0.08366405828293845 -0.031395560839763817
      -0.02330464057689223 0.00087417940988367376 -0.0059183660685465656
      -0.038840683050589554 -0.047096079544810196 -0.04969471465959522
      -0.16887145524214278 -0.023515190361145299 0.22280533996197802
      0.048905327575127083 0.017255323186465103 -0.0073448322787737245
      -0.015240571490399852 -0.077223717573189271 -0.065441397525868361
      -0.005194155704530916 0.024111862796154498 0.062460929860470568
      -0.18533774458653979 0.023099277753145044 0.12006196245074655
      0.00079314242434395683 -0.073369355730677696 -0.18649221534713029
      -0.04211091423199189 0.060198796192785543 0.027795539634660242
      -0.052240509399427579 -0.060201180373306337 -0.14539982144751476
      -0.081318381447004054 -0.020843359963803619 0.011536992525894163
      -0.021339942902201939 -0.047885231132030408 0.07736487547600801
      0.064701547348017821 -0.010596602464146216 -0.082530826293020956
      -0.05812617963460457 0.057005759665383626 0.05094783148665992
      -0.063026794184942211 -0.1757184597986991 -0.087416860901765397
      -0.13139683398771479 -0.0058977675492504263 0.036705078558427841
      0.18185389002186225 0.0051221999118278043 -0.017626503130297802
      0.023330835153813168 0.040073710848114889 0.031332415857418694
      0.029765321067227016 -0.023956640238430197 0.03175436611346915
      0.11863188071983967 0.045969480478377539 -0.070892395622169702
      -0.026990250059453248 -0.035202773620417148 0.022448414278061907
      -0.11742897518147145 0.01726023697078214 0.024090244302748882
      0.064576660891929774 0.023017629680384299 0.023632767423531719
      0.035298747139698904 0.04631636880935739 -0.12581461108508368
      0.13885604033148102 -0.051307718842848495 0.11037332813364246
      0.11463324979592412 0.13480213389727866 -0.025134563467167297
      0.086481232346337464 0.072822395308165061 -0.068266948065126981
      0.22160382085626798 -0.12171261158268265 -0.0092466057989413521
      -0.014839113577171006 0.020357659907173122 -0.07911271884392794
      -0.079895900220975327 -0.039294345271460508 0.085231168537374821
      -0.10507267395011134 0.040874789420156106 -0.1420095868849332
      0.10222187158162194 0.12123673755662576 0.017636619167029716
      -0.062216093520124902 -0.022724130029757171 -0.15595338372247905
      -0.15154623944066972 -0.097441906981351981 -0.1041959087851161
      -0.11060662413275767 0.033240845133457944 0.05981688296056549
      -0.081400724505918232 0.02834960948597412 0.010745751534128977
      -0.018868183615767871 0.039604354864856361 0.053521032164004875
      0.066651872725134412 0.091403925476072623 -0.07491025485614361
      0.045527574465153042 0.013947850797120961 0.051688982331134559
      0.10398873295832337 0.075829960312866707 0.016231271205782799
      -0.007947900172201124 -0.024297016360308368 -0.030293252946285518
      -0.035016332795006454 0.13562349629814313 -0.10139924238550946
      -0.007079296953456193 -0.087127228356427694 -0.057987422506838755
      0.054110509041258047 0.026548773944100532 -0.045177661945666435
      -0.051398228656528822 -0.18197179015684239 -0.166135412583193
      0.13251555914873045 0.10918555118367594 0.14073788036529658
      0.057907485783415341 -0.11869709961050079 -0.1819063456022611
      0.014791968057266056 -0.031617563160387809 -0.0616830709438074
      -0.055587687837247823 -0.038465191929256397 -0.041173820949034462
      0.0013091518068974659 0.0346814040585358 -0.083525557629847452
      -0.070644669600831947 -0.044683477126168832 0.0090449985881709601
      0.017992190143294545 0.052340038083635777 -0.01177346359488222
      -0.02764583281303221 -0.00087771327801287955 -0.072682446542027573
      0.12926598388873042 -0.072973299091475041 0.020953736682583705
      -0.048855970967674849 0.073828019338831624 0.086135949491735406
      0.044840156605816514 0.017279555085737211 -0.038711882634682851
      -0.02561071556269932 0.091506077266486519 -0.049459654309697947
      0.0097504790907219051 0.077122335546022672 -0.058653152422381664
      -0.02478064806401933 -0.076329475330506574 0.049505653487521908
      0.12113942585890441 -0.16447735857904736 -0.015760860582275524
      0.0072722109009627804 -0.021275492276978159 -0.061471506970834651
      0.042456027970658075 0.15654261902821107 0.039973469467425367
      -0.060756694456647942 0.073140392010082336 0.050232760056988519
      0.029758512365588956 0.10999207386131375 0.002742911138152785
      -0.067278417453865591 0.042833102309860718 0.03938875789226972
      0.073746345588973042 0.061781352057384699 0.04478884303364495
      -0.005483056347085756 -0.0070832809988041843 0.011778075879018262
      0.13658119577020086 0.055722913992224052 0.082996024439920907
      -0.15425012979104069 0.026364158670800247 0.045402403535255521
      0.032072390850549311 -0.037441736156825667 0.058389363440861965
      -0.026642194890493728 0.049869660900945516 0.012915731707910249
      -0.016649667424245736 0.065073836324634593 -0.028894959201054581
      0.032719684485704705 -0.012462112507650927 -0.0043836103655829324
      -0.015132951245475078 -0.053038403860349664 0.073592282123767047
      -0.021850584082306855 -0.074690276095737626 0.015940632048393615
      -0.054588926438859105 -0.0075371106968900314 0.058632376144791047
      0.075043402723090402 -0.029501280492891427 0.026310198825496053
      0.0060933431591702067 -0.037255625550473334 -0.088774528929519619
      0.06331125460497794 0.031708476126517067 -0.097419371108483047
      -0.10090735194610419 0.044875756237356797 0.06641527943401862
      0.057780531465992442 0.012707811767764607 -0.022951511150137122
      -0.069174857368126702 0.038241738507491102 -0.082425912350918257
      -0.10598425704915473 0.070117663022649157 0.0044195192848510362
      0.0063441680852531733 0.058383967050976364 -0.04789539991892787
      0.046643608973545275 0.037229749991000524 0.065494501242408007
      0.031865404292444062 -0.012320348856348617 0.038404677762772621
      0.085844463489586964 -0.071145139043125999 -0.11298687784703591
      -0.12847334887411954 -0.027344759715933843 0.030405933987810111
      0.15645174279904844 -0.04095876596180438 -0.021397072522493198
      -0.075394917248600854 -0.013098902367494588 0.040070175018100021
      0.015303349449402762 0.023193174511042622 -0.037023984251136483
      0.022339387576078912 0.075060541801377223 -0.043300976158541164
      -0.022102529206346477 0.0016630026679003481 -0.067927846215324175
      0.11319645529045379 0.099850819568946717 0.0011815322307812621
      0.034800079695126648 -0.047461392201989097 0.11885541318366112
      0.1515522961517306 0.016030415540624773 -0.025985134294508352
      -0.051869348577508738 0.016237023611433182 0.078219231077608267
      -0.085442221813818192 -0.018873115837121712 0.15558106365868057
      0.10709923408125527 0.10212739541983061 -0.076349492810903655
      0.073354490485496374 0.061784437377064218 0.10947036752415455
      0.02374277925515756 0.014821119001637297 0.062041845362399796
      0.012840529171496766 -0.0083496381384063154 -0.068664702494018612
      0.054989212062938872 0.095030252105745852 -0.038034998574919113
      0.038795320096307449 -0.075057968728275415 -0.18599537024644808
      -0.019570001489332634 -0.11009783462930471 -0.071777304470591857
      0.17441882055283886 0.02061449501966987 0.03768993854151808
      -0.021508407601800537 0.088044818607621672 0.031311936100608173
      0.026230240831017947 -0.0093705209987206568 -0.029980965636193721
      -0.012695440152757765 0.11352396684593259 -0.024479824121884215
      0.022634660378752693 -0.033452112399490357 0.094107063693068232
      -0.10657102047903894 -0.076838891942518153 -0.0085740511455076711
      0.047018898601104135 -0.014811019033616491 -0.049255569579634742
      0.034432668059746818 -0.027805346255743293 0.055895040660615472
      0.043741426698666014 -0.023714891194689034 -0.00032985582723840651
      0.011840832812558912 0.01113487664501002 -0.026628477508747344
      0.023816966545811172 0.065625979761143746 0.027245803470817734
      -0.014995067847106823 0.027899552026280403 -0.06710183979642094
      0.00066734409989196335 -0.038595304476201492 -0.026335124831464076
      0.19545461288135943 0.14110843635028791 -0.022492927928606691
      -0.055414968965384816 0.027489276348008441 -0.048012644421401567
      -0.11770882938366702 0.014877335616818234 -0.005883815161003004
      -0.066718799850455132 -0.0096368386420379662 0.094943108894934569
      0.0072653452762547555 -0.10657395266560409 -0.072008975827987806
      0.046030278005574229 0.046265101566831612 -0.083041337345792041
      0.080224019925737453 -0.24722053176808251 -0.10050814133142846
      0.014426727612783873 0.08500106824694055 0.16579375450226197
      0.034015625115583918 -0.0042232832811161004 0.022560892729323236
      0.026000554830476249 0.01801080967976133 -0.04162349088246841
      0.016412559526437099 0.020248679023714449 0.057328487804757196
      -0.07864537852689632 0.0021550501075061723 0.030845240180837532
      -0.093089219633218839 -0.0969438241780297 0.057845429633217559
      -0.014368686793345631 -0.047129602701371204 0.095900978666678544
      0.089725006845335645 -0.16777757936341151 -0.04874101164193273
      0.083804780371590198 0.10021377258030945 0.090903367394909493
      -0.043460577556718852 -0.043500098682176677 -0.019933859630584635
      -0.017682471487688967 -0.11461249371816278 -0.0014536196957077041
      -0.011800434514226908 -0.0076564294052263396 0.09263144880044917
      -0.081828260499338348 -0.016981784147709674 -0.075615414174677403
      -0.089581253664261548 -0.025204898649393459 -0.069153186870721806
      0.033649310216780554 0.038214286600946883 -0.057426362551755317
      0.021075424496411754 0.063268309698178538 0.0446404490707435
      -0.0068343222341970631 -0.016663672413616871 0.08928669142009496
      -0.09225146706214668 -0.082201175171883981 -0.0032737744246770042
      -0.062931202986608564 -0.0074941266114007497 -0.048876436767560989
      0.10367575155461779 -0.013708316731720101 -0.080728298511482804
      0.061924429542300964 -0.0026235965925897578 -0.05860914019092666
      -0.094987591212467068 -0.094282516584068027 0.047772330597741684
      -0.030541604047712369 0.017711392997107632 -0.056353220408691972
      0.080458757070592732 -0.019848998438558741 0.03959667065668384
      -0.1019465078964631 0.063003064189167748 -0.020624821619051735
      0.018416594302891397 -0.0007155840111527647 -0.054104537620041561
      0.14309255801370682 0.090588564545072539 -0.028815658044699304
      0.09973613322876819 0.087198487190967844 -0.094206847882648215
      0.059786320405633316 -0.040295233891757085 -0.017012575220917443
      -0.027507679543265617 -0.037518882536349947 -0.012782563234774787
      0.093440117136778134 -0.05407802366159329 -0.0091628745019012633
      -0.098035201425691706 -0.02572833616582304 -0.079518723277117634
      -0.1076932171154615 -0.096630485928322005 0.089368159491003851
      -0.064926241846510163 0.011089335232677078 -0.10033372503825588
      0.02929763411026334 0.062588872387547026 -0.089421043517960014
      -0.024351685927140689 -0.090547574151312288 0.039923040184656665
      0.097000631516094851 -0.025501359394351098 -0.13017064105595533
      -0.04619072165043963 -0.056862310906313898 0.10097458338560671
      -0.053311720174752449 0.038896406085369498 0.0044395630698449273
      -0.091391018922865261 0.067775523140192709 0.040898075857947552
      0.043070597417038975 0.086853101151204606 -0.07941318799289307
      0.053382092601505303 -0.073714974183315587 -0.019962804821924512
      -0.099536485833664146 -0.060811279334380873 0.071801418993612864
      -0.018423332751837863 -0.0053576255266355672 0.047065304983322058
      -0.021224036038558693 0.093743060416550547 -0.048615171944210063
      0.078593819769222487 -0.098835127536588005 -0.035755552668308391
      -0.00092109914167732383 0.045696434506769953 -0.065238700657253804
      -0.072353294104598481 -0.052729180098958321 -0.15476400772578428
      0.037911978384845134 -2.6112678116480638e-05 0.090314277954643571
      0.020628829641184912 0.029042008451027879 -0.02633835760373094
      -0.12339545407614372 -0.065120953101547654 -0.016336095258248313
      -0.053609769395881718 -0.027345264832404782 -0.010304248963536287
      0.0015337138205184779 0.07644390071048679 0.032347690770389473
      -0.026519469280911621 -0.14798213428677515 -0.058992457221929223
      0.023214239993670158 0.064291977045191823 -0.036261356239150014
      -0.11382262459372333 -0.11923890309383139 -0.097295444897744651
      -0.0042108543049164627 0.055233898988816775 0.027834720978694435
      -0.09369606157011226 -0.095813908317741323 0.024463451190294246
      -0.11025419137593839 -0.053002262947680019 -0.074847821651275057
      0.045901494425270868 -0.0073130809473951628 -0.066730465873345052
      -0.080227544806344794 0.023076858985601873 -0.14546261568698635
      -0.016842959393924637 -0.0055741247598753881 0.092609679293654851
      0.048161730517421883 -0.088329824932435949 -0.10115393081571773
      -0.0081596942655998775 0.0064583361484769602 -0.020585235447948956
      0.027747006816431451 0.034311099143984308 0.073159816817837411
      0.034757634356316687 0.008909214424536958 0.025029951571209238
      -0.048337704936133409 -0.0095922683345591991 -0.09206558680384791
      0.014697484921326961 0.023717728184457297 0.079538043908567613
      0.006071232071620569 0.10502874910008693 -0.057837045045920965
      0.092725864795774007 -0.11535884743755689 0.070940250157880122
      0.041898430319024495 0.11529347531006087 0.078710764807803882
      -0.029348745423739598 0.086336658935916674 0.021391177434848644
      0.05327148520886333 -0.042251853233210186 0.10088012775719539
      -0.07511608416884212 -0.0075628096183874395 -0.07903328400388554
      0.060619216449761551 -0.0063982266370937613 -0.076336332264426668
      -0.018839536961727566 0.01958546538845142 -0.074830712380548461
      0.022789799802569975 0.014487036011042592 -0.050796722014045316
      0.12179784903776546 -0.034630786490802541 0.06837021716756185
      -0.031209901939914946 -0.20114809343779561 -0.042687557363825422
      -0.033504978336515605 -0.12637221958075739 0.0065669048902869927
      -0.028036526833866787 0.14698505951337568 0.00065048104073370467
      0.010165497468806056 0.034830745935110818 0.06145121170160063
      0.011825174392573244 0.015396242150778547 0.049956880635219331
      0.10974712496478192 -0.066557395986767284 0.034581912585554896
      -0.052088689851831557 0.088577927818917782 0.14757958922226375
      0.018728982359085319 0.071705958834939187 0.0054264781706220809
      0.066885274934246619 -0.035729699712632262 0.040821113867278068
      0.01743329563908198 -0.12103252076395793 -0.054863558559088976
      -0.038565138456205308 -0.01101075082966658 0.019878356223071766
      -0.0041314890864417543 0.056597156229081728 -0.080379763343716881
      -0.032236350021893359 -0.10097091769891041 0.088578324315496504
      0.028791452051719398 0.092301758040047976 -0.034058393957223022
      -0.082134417873860402 -0.0078883387983533088 0.030787773493872659
      0.015974090448658562 -0.076323257646342207 -0.049271132924773219
      -0.024946252624764392 0.029987248907042938 0.0015207395350307373
      0.082536976104409895 0.091137531123030038 0.14338902869086204
      -0.059930275999399617 -0.076311383612715167 0.095323084813538184
      -0.035156749028764235 -0.02914648279973581 -0.11554554757587687
      -0.22277657602499612 0.030293101270017223 0.01223923190006319
      0.13117681962111574 -0.058568996358569624 -0.13801538673019864
      0.1189089048633693 -0.021344624120496859 -0.081948226771120111
      -0.030394306634801214 -0.047428884335691118 0.032092154083278569
      -0.17408078996556642 -0.05995513122665061 -0.18614529842145025
      -0.0028864702402567784 -0.0067355512476219206
      -0.078471036196416377 0.11879654449409491 -0.068886776745167966
      -0.027567306036331729 0.072883445602381747 -0.046580518344327713
      0.0013664918903631051 0.077300388393928401 0.12645618678395623
      0.029994163190747831 -0.091938918448362203 0.080891474400914348
      0.078524391495253879 -0.1379125608495258 -0.10587996887112162
      0.027550374125439824 -0.099476625875119989 -0.021904693029133476
      0.00086236837709806509 0.10931001318519164 0.030761407120371353
      -0.062822598892504772 0.0081549692215716098 -0.18311665350995848
      -0.033628239782325167 -0.10799467819784932 0.043170057004043819
      -0.25918248898376983 0.15614277200577423 0.067777533527712139
      0.15797658686736304 0.065199489119369861 -0.045559232253788967
      0.10304944318225479 0.016659632860195943 0.045078290468686
      0.066361957759682288 -0.061959956986662179 0.14480981670181201
      0.038024297002372816 -0.019666714466653992 -0.068487723579004525
      0.075294284448802817 0.0070247790097896457 -0.089532557472294216
      0.061550197736954679 0.029424699907715669 -0.0066298925582199721
      -0.01923447885449674 0.1435152802891235 -0.035524871926474584
      0.069560567251761934 -0.16401509588919738 -0.20218793512638278
      -0.12105055056299036 0.14584469550734716 -0.014553424034776864
      0.045573552865450381 0.14819910064145589 -0.017700829293161708
      -0.013112912781929871 0.030901045518000304 0.076044526765833342
      0.033830441440849839 -0.075142759082955438 0.13120039636100969
      0.050958711652882072 0.036849417785796715 -0.073744865063015072
      0.15649631703815628 -0.044065501243372676 0.15649302374739676
      0.18844814445740865 -0.12548856199774719 0.021336327243183208
      -0.10965409472946795 0.0043249519635170401 0.028769611504071355
      0.010146547828965995 -0.085847622418604191 -0.022840880302105446
      0.069149199054123811 -0.13836161643831218 -0.022261224170776819
      0.015400632627483609 0.12362540840368542 0.10089152229237373
      0.007256626864579536 0.096072424226291184 0.10327069817698242
      -0.032112321604649524 0.07287808590304419 -0.025961781160198757
      -0.15142859574264203 -0.15382057792078951 0.099238138619154814
      0.11268030514160267 0.037456889199211169 -0.072099455732055909
      0.037968223063205839 -0.0036524930455327609 -0.0134260503326046
      0.026700106198235901 0.026737667879196833 0.095315983297933268
      0.11045213982378599 -0.062281601435385824 -0.027271211945865813
      -0.015555003945670956 -0.017490360017794807 -0.031446607157735139
      -0.059416602105961988 0.00069046344744604592 -0.044774065233150424
      0.13577574490303582 0.018686035309950944 0.056406346672189848
      -0.21985005261075555 -0.1477157418911404 -0.046646918623285051
      -0.093618711367157131 -0.015767017366037327 -0.016560614885419073
      -0.12127234878997752 0.0029098547434082333 0.0038692761144871546
      -0.030757070309613103 0.045104840923294094 -0.012773818658131143
      -0.066997914935925662 -0.016809609329727797 -0.088778299276983705
      0.054153316052981369 -0.026655029184073104 -0.085998734502280641
      -0.0051792660772899037 -0.0039404278258428271
      -0.096445452627218459 0.0039276395859077313 -0.13405155762288834
      0.006160609268295026 -0.063007840792788011 -0.053294567287091761
      -0.18940119552380094 -0.016195725816664647 -0.067885694503046531
      0.046094692012515502 -0.13485237868868766 0.11948075412432053
      -0.10401859159882088 -0.053712713313276116 -0.14917258614863038
      0.14223253195537267 0.12188626742642961 -0.022678751138349076
      -0.16133119515510383 -0.048940106013894868 -0.0096069633018005581
      -0.038669019959673985 0.099384928702915612 -0.10951671939362793
      -0.013677187363045486 -0.03293763337166964 -0.019548301871069051
      -0.11562867962907264 -0.014575489642405563 -0.086884498854137834
      -0.0062152629956251952 -0.02385756007765372 0.13133483405985302
      0.0056302745509444804 -0.010262626488847165 0.015035504629740664
      0.0080613031984233443 0.12662910472763197 -0.17087355014705305
      0.065670178100447049 -0.044117959723459485 0.033670434638439668
      -0.040198325687023993 -0.033162530367776596 -0.056449774787998376
      -0.070347784762995247 -0.03552601710578817 0.042650917221546021
      -0.042186565347163564 0.13435883174948296 0.14427464225153766
      -0.10098740748065227 -0.048817793655912323 0.15901674026330473
      0.062699473049692214 -0.11839583063348916 -0.15236781442730579
      -0.044595031134282204 -0.10943287049490885 0.011467092716404842
      0.086276318952692277 -0.068880139873583185 0.13007864259263832
      0.030628443610795534 0.034593634818768322 0.039146619010062438
      0.028616032272783146 -0.13203649440556953 0.012840578147810072
      -0.05594944365054387 0.023133667537751406 -0.077664952504584522
      -0.0029623704195977899 0.12857615143988807 -0.09896940568747481
      -0.18023061626048589 0.13252687769828428 0.097079899882750037
      0.13147485730899983 -0.017928669596010093 0.010593742402397183
      -0.14610772025583027 -0.0085467042097442311 -0.020061883502309037
      0.077255686029701384 0.065089937246519486 -0.064964958383813096
      -0.11315544229094088 -0.15988795624670632 -0.062185012542432819
      -0.035907336274785838 -0.11971355459669798 0.018925062676973674
      -0.038965548353616493 -0.053353455301170152 -0.020708233562117238
      -0.0078367360968228696 -0.081622147781516732 -0.11324400866938095
      0.077688071008483281 0.091791659337437742 -0.093873990610862601
      0.077756405318425467 -0.11942817905307566 0.071128476343157665
      -0.024533370732870145 -0.032936655456740682 0.052823699196325388
      -0.091237371663285854 0.0026289368389665752 -0.089658954879429667
      -0.080809213500920532 -0.070964836652304103 0.046275927840220429
      0.044465492298282443 0.016729091594159574 0.03017396273486014
      0.024004700097728364 -0.071547011548595441 -0.046066715406936569
      -0.088038774209488954 0.032989123695634601 0.070821603025003954
      -0.11094140888971453 -0.064082968918734787 -0.058481914164038369
      -0.056908595075305934 -0.021396832593990837 0.077443561995579308
      0.008373224452284167 0.08206289759698597 -0.0055531829205891963
      -0.063532782967458526 0.067663883875116834 -0.044306927149123917
      0.13897935818785337 0.0093161652986679961 0.043458585927747671
      -0.13881173137896782 0.010711992809591904 0.034754141463247311
      0.031241154345528876 0.060444559458708899 0.039873901033346475
      -0.0013012925515507952 0.02479506514157679 0.085000237568746556
      0.0076096924327808818 -0.0090163197459749034 -0.10512598895601637
      0.0081164694072792306 -0.078770254977218207 0.069627606003929948
      0.043822185055522246 -0.019342574513261851 -0.11484788719920454
      0.019453555066372741 -0.12782949069369759 -0.079354000353634407
      0.010272475541759751 -0.044467972982955871 -0.029661666854791761
      0.027252172426942899 -0.025343094820287571 0.046198875145538457
      0.11772785480866069 -0.12659853085571335 0.11346009332414404
      -0.15822199403366979 0.030820788983456329 0.023038317935215269
      -0.082433268879773605 -0.01011623908047761 0.11144210012997009
      -0.10868304417685444 -0.040051240602896811 -0.00074805938755426605
      0.021905025135763576 0.10418874461457506 -0.012361013544194034
      0.065276206785745236 0.013866386109371204 0.024010274103973168
      0.078687160213132254 -0.0013977203055033495 0.14317542703811625
      -0.06883989115201973 0.013298075432045083 -0.050465338148701466
      0.057113521063448559 0.13377919603817356 -0.012518193623417684
      0.14670118246885824 -0.075665006634286297 -0.021348605922310492
      -0.16081487539258582 -0.050753968396252631 0.014986538620497394
      0.020551044463564646 0.0068001556827075012 0.033605033629761701
      0.12413274613321185 -0.034769412255558151 -0.072905350590463228
      -0.031597287708644575 -0.065860394585124701 0.016942116331379691
      -0.14894566773307949 -0.051591134246340313 0.0048379821015579316
      -0.069691933383379451 -0.022448963960321516 0.042524826490181897
      0.037685412627690471 0.0027242389590980336 -0.029823442822747789
      -0.15931702977266171 -0.04690889165158104 -0.10470896612164272
      -0.036003869654438157 0.062260817625720749 -0.0050289944908241792
      -0.0043838018122972821 -0.10113575399805029 -0.052684931963320324
      0.026313971095729145 -0.014402314687140684 0.028596195029463565
      0.012934029722413747 -0.019583014536008369 0.081887633900185094
      -0.062694179018209992 0.018231111539794672 -0.10207510820718352
      0.046585857701103919 -0.012395785013283957 -0.063907382198281446
      0.035246572908769001 0.0084778211270929923 0.03586834024517499
      -5.1944177959841981e-05 0.015735918873854778 0.085195661613641158
      -0.025708950698769981 0.0085834021855221085 0.010986458921453016
      -0.044582901101770503 -0.011312944480694507 -0.027005548683798144
      0.096737197299784194 0.033695900567219453 -0.071450250534610099
      0.0057628293010439664 0.0073352364545868475 -0.021560534004226296
      -0.05424254377896226 0.017897620928122717 0.059433260614152467
      0.024886420427815654 -0.026665952983673549 0.072584947252961163
      0.024530001800096068 -0.0011675699069671763 0.021413722928791918
      0.009577002304228574 0.0074833527628312326 0.0017913542295253998
      -0.0094957462059704796 0.067579591500353767 0.053556999708255754
      0.07298737858707037 0.028812299880795946 -0.0066902560800669196
      0.057079451084059103 0.13609667751086643 0.023214603580440432
      0.045202353557354434 -0.05327634100344996 -0.015831539586256136
      -0.0093733000187337795 0.059503851604365755 0.0061979782038397522
      0.038677419048979388 -0.10451337820299296 0.048681315515204014
      -0.029799434505766786 -0.0015918518068562969
      -0.0018292263989588523 -0.067375052178582986 -0.018018885302829923
      0.0028791899555457722 0.0056933124940125156 0.051797169567075925
      -0.064928967637280802 -0.009934515583082601 0.053061643231012291
      -0.027934631481877432 -0.016438743574461179 -0.032493780012618143
      -0.045279706041053094 0.054913046637457219 0.081231927524985995
      -0.10168652185227457 0.03162445225852166 0.0037563601746847613
      -0.022178508245640782 0.0087493983240661023 0.024797812810664042
      -0.0014225367237070874 -0.048402875671742375 -0.012156909399876223
      0.069523990165244021 0.020480251624273887 0.063943536431806336
      0.032857030082682523 0.0085160690035096867 -0.084659765742386248
      0.062421861663411085 -0.049216992719600706 -0.035063536750109467
      0.10470581261804018 -0.0097345427615301312 0.080619242099204028
      0.00026666505676203037 -0.047204019185213428 0.052911460800581192
      0.029420926338896612 0.017790849402289283 -0.041803191029173799
      0.062790954526699888 0.0012043036130970131 0.042893314013007285
      -0.010989329938778516 -0.092238597711137474 -0.036228557145116344
      -0.086193440079930697 -0.027063731069613069 0.079763292301839261
      -0.047369110736336831 0.033369964750706589 -0.01592294074176118
      -0.029913974635539665 0.023713907433298043 -0.018392076176896296
      -0.031891364051457254 0.023771767817365053 0.028213166104139126
      -0.013094448005815027 -0.038068936262243364 0.10179601938328514
      0.063806589519253665 0.040353760796904115 -0.086146212415554979
      -0.053155930236558159 0.022692407917123729 -0.01523762051891453
      -0.016894656125709336 0.0027557143593319186 -0.15113206074499863
      0.057410545621003811 -0.043013843113787087 0.10178610421596605
      -0.052710743596094567 -0.021701077375178911 -0.075667999054413654
      -0.035382407883929455 0.00048799262405594784 -0.074292456059578085
      -0.047356740939053253 -0.0021446086251851663 -0.038468215108038085
      -0.0022642211501888712 -0.10709076251770742 -0.051523035603899467
      -0.011154721836217216 -0.077833560466003468 0.068537218961540913
      -0.011862355493072263 -0.13280736792693382 0.13488973170843932
      -0.00064543014816078811 -0.098705237128341144 0.082489698820956595
      0.12192164201019104 -0.043659350503852765 -0.08844985508490083
      0.058221794178156615 -0.00088085968565711486 0.0083995405634891204
      -0.13033193720095143 0.02975458724503274 -0.018327289496898939
      -0.031837707968159226 0.062030054621777422 0.07042193836213409
      0.041989348094165754 -0.061947230510967566 0.047522952755676549
      -0.091062684405578284 0.038234945923173703 -0.12018145930424268
      0.04354578061301282 -0.12739034810448052 0.045427347799792274
      -0.024481513940848038 0.17532413089649179 0.096526781162076233
      -0.023130435571014022 0.12441640805901943 -0.0035171758082168515
      -0.018202228286396522 0.042616463861946265 -0.00090899890183180287
      -0.027083013470794226 0.026436680268289176 -0.030661073761261887
      -0.067234271452911082 -0.025645249798152275 0.095948571316511924
      -0.084455860358938331 0.050181256839916179 0.10551552991431254
      0.012495985145175676 0.011728388606893979 0.0060132717830740515
      -0.037952669185910261 0.042647351280818382 -0.034305447710830092
      -0.015114776154602574 -0.11785885084867111 -0.045246956818990755
      -0.015214195840670349 -0.0077949352214332149 0.059041506371559395
      0.057677526654290802 0.0028471575880670529 -0.016552604550843675
      0.01490026786324492 0.15676589377355532 -0.041439189529114247
      -0.021747789035879688 0.04616037107815274 0.024489957557882063
      -0.012441076951316025 0.021228467512626272 0.10168301431098588
      0.085810375289954097 0.040894998223862937 -0.036619629598176467
      0.13162389180467091 0.14461723015054193 -0.012007221677541327
      0.02164653834746446 0.0024504693929298252 -0.067712325967203765
      0.029514955454610938 0.006026363200599379 -0.053944218442470653
      0.0060586685001378076 -0.057120474414409199 0.014010910270453257
      0.10132805783932418 0.050051844875426563 0.034968746812081473
      0.015650464798212964 -0.055259781539789291 0.1349959704318266
      -0.042237512611316398 -0.041925132508003518 -0.064183713032045106
      -0.099284401989765 0.024828854621896528 -0.013897266480152515
      -0.011665740178195673 0.071783376379399355 -0.16828032289240638
      0.020536267244091556 -0.044877093157565211 -0.112910133304034
      -0.08374226306919054 -0.041515854374818952 -0.090841576813024336
      -0.041001259417722064 -0.0068388178473435327 0.075312855016963692
      -0.011122507518622633 0.027448360915516539 -0.085523989619091773
      0.049426414843988534 -0.056396216640752395 -0.089019114712935596
      0.020983428135342645 0.085322408899495647 0.061685369671208926
      0.045077747460448625 -0.0094497884483616713 -0.07823821463130938
      0.051869319242434112 0.087048230630616563 -0.015995894318616526
      -0.049818751730173111 -0.0099013848905257808 -0.023425524194385948
      0.066863483895634498 -0.064260380403887887 0.099630789011755982
      0.037524856935700464 -0.042067531647776407 0.037920041375746949
      0.012543509706587521 -0.026576231682677975 0.0025207846160019863
      0.08025647325353194 0.071754601998251941 0.10454521545915253
      -0.054126826273422197 -0.14491153154044842 0.094039794474646735
      0.024883609597216361 0.16855917524439978 0.060599836293410585
      0.085954434272121266 -0.061504984546722999 -0.052112782871627648
      0.1004917311995191 -0.0063125535551446111 0.15392944209724527
      -0.037100883949198422 -0.03241688632966757 0.1247780197160691
      0.040817011897097806 -0.010677432628513082 0.0061074221790486001
      0.063379184367917521 -0.10424696506646257 0.06666240504043501
      0.13792670266517912 0.046950505219682859 0.082077838099272896
      -0.094416597652020887 0.01457241845216004 -0.023280677588969068
      -0.089726180224872651 -0.062393151228491088 -0.043790488995371281
      0.0035804016606503846 0.033602007370595072 -0.076506295880343314
      0.066794178294279652 -0.088545269563889084 0.090723061719851492
      0.073864630889048238 -0.042752101497262329 -0.12121916656182169
      -0.016166520795506838 0.0028190609669031374 -0.0030646549072990453
      0.068687027439973555 -0.01113249845491439 -0.12631310796697631
      0.049748391222465813 -0.0316915275051739 -0.070726243276897374
      0.044007631351809386 -0.023394261767659807 -0.14343388165145032
      0.015587797682964916 0.07554524911664931 -0.029731055031685927
      0.054968988163696775 0.017360973920994106 0.0034764992675355038
      -0.060497527226788035 0.015977449045045646 -0.034870617684000779
      0.0008322768944291416 0.066985412809425285 -0.0653305820957963
      -0.032580190681640323 -0.019364695933845686 -0.090160757310882647
      0.10598602046890447 0.016622447835665469 0.065340699177981312
      -0.1373277206269686 -0.035105128889749176 0.014441745030740133
      0.12433265896809646 -0.12426362570345191 -0.10671805928019355
      -0.15177049248966615 -0.072264782710557751 -0.055608401819130154
      0.18771333114395586 0.020139656388831167 0.11933245310212506
      -0.048329844110653108 -0.088427368184685842 0.012941925509701203
      -0.046166345918739964 -0.009617336024572213
      -0.00013735505491826265 -0.064699263960411174 0.018406978269421507
      -0.0031536133699957623 0.11911345128871574 0.061571191406445486
      0.058160951413304719 0.046008977928821908 -0.038176451025675073
      0.068559429686921858 0.044291480115759806 -0.10034715083199838
      -0.086285404349586203 -0.14707893786745982 0.083666850845444313
      -0.04713287867363853 0.11992070766494116 0.065226082930885082
      -0.072009959813180702 -0.016226126771841338 -0.054725838692035123
      -0.01960719923162926 -0.020676643228768908 -0.0031895843902591927
      -0.011133883293965297 -0.13933948839712088 -0.081786360833320651
      -0.091708517258265509 0.037900444213961389 0.0066655889088611375
      -0.091718437455897014 0.070949916485655906 -0.063962491165676427
      -0.013376422913516515 0.017459260956007007 -0.033963896487777381
      0.0051031813947932563 0.042948420694006673 0.030606324210770176
      -0.10438259622533637 0.0028961913396711053 -0.043735455959942764
      0.037610791962857909 0.018948783713611212 -0.0991207188827289
      -0.018005028577725533 -0.12515977830016564 -0.15353008971670432
      -0.11248826677670692 0.078105127357409126 0.10003093458410922
      -0.072279223087207176 -0.020923052002837908 -0.093161688680595059
      0.040752664622808493 -0.027970346738194589 0.049501479493386347
      -0.16618867640524432 0.14950876998895943 0.0852514441948726
      0.018862723111928631 0.15877741967322137 -0.0037862615028702879
      0.001776115556208855 -0.072816817162803804 0.1338509400060309
      0.074804894343927522 0.016920562046817911 0.038246169984488022
      0.049718563504323507 -0.01916787810450148 -0.0056187500230982269
      0.028051938607810377 -0.0025332646442727978 0.011499302074514764
      -0.07116535066815452 -0.010151887212560547 -0.004152078004559764
      -0.074413424196201991 0.10381806986627856 0.047522798062365625
      -9.9294448624184963e-05 -0.13621127271351544 -0.11227921523729811
      -0.12546787061391032 0.034039623788646986 0.092771790984892979
      -0.059033324500750488 0.081161814067157639 0.011856606046702196
      0.014532252906893901 0.049049357171789904 0.12087490966023123
      -0.04409823064437992 -0.10268759875313647 0.076791390533228754
      -0.028150257476562753 -0.036235261624529821 -0.052250784720691036
      0.088784996914219774 0.027601581880288325 0.11266829116633852
      0.089933692098532261 -0.062774658948195852 0.085341335385439657
      0.022847955765795042 -0.026798851311567007 0.12451426221243923
      -0.044459014032390234 -0.11318379284048348 -0.041174754255986351
      0.05189460626998154 -0.044968799054367493 -6.4370270127920488e-05
      -0.032835385237336291 0.086172289228979557 0.1188803659676668
      0.030027429756215685 0.16543275484704978 0.15612193384774309
      -0.065867142621232069 0.10284159626876352 -0.12761054027209925
      -0.021283052001369266 -0.023508840781017448 0.088897882096685282
      0.054373483660800491 0.048681836791380891 -0.1046588327127275
      0.0070727885016293335 0.057229347311204035 -0.020562487442671491
      -0.015357355026313278 0.010532814418157004 -0.041094793303065758
      -0.029271042170286442 0.022150813456883824 0.04223594161845734
      0.026529129450020415 -0.021813913696835403 0.024634116754582762
      -0.022609047327732022 0.0070850734334369459 0.0054213276115552605
      -0.0399512656078026 0.010402316868258949 -0.044858072234067355
      0.04635445593448146 0.027755202335477885 0.08715192485112247
      0.038196773573224138 0.028898572372286387 0.0073138060528300216
      0.045669678887662955 0.01721299676687606 -0.075963907288007726
      0.0063425766921966515 -0.035558155742362332 0.0024008859920545762
      0.095792016017693354 0.074417432820483423 -0.035800514520777253
      -0.019551902899324573 0.011770086477988767 0.019076788544471757
      -0.012333935874051764 -0.0034024830880658653 -0.064414370622712172
      -0.016214240900942929 0.013853991080283155 0.03729699102918875
      0.030471090010923511 0.008531183300792557 0.08518150820660858
      -0.017472209444017141 0.030145460776887231 -0.011000484144496869
      0.055852457952331645 -0.049613281373908982 -0.025839166237776056
      0.026263230296810922 0.10260916275266255 0.03675900647584545
      -0.062203285107488342 0.033394791631803152 0.034098869992446795
      0.02469930714186366 0.019395798594717472 -0.0163694824082742
      -0.029141406041400402 0.023664398906245457 -0.059883885418930742
      -0.027721954571827558 -0.029171831720611101 0.040501072427026837
      -0.028781309539527622 0.0045253712731544949 -0.023225686338523406
      0.042767582914766698 -0.11417381109672536 -0.072544253536966488
      0.006784552303525304 -0.010825805420945359 0.010870425113396231
      -0.030030826883227515 0.058174768930013047 -0.0071346222835607272
      0.077149531673414304 -0.036963917041849037 -0.027451884419158541
      0.027595951038574203 0.02996152249021912 -0.058944439490896505
      -0.063112665425713241 -0.039091036621006006 0.024401283037967219
      -0.035584649483711081 -0.066829835295921874 0.070996229393965812
      0.025800807173668446 -0.076223274037040545 0.016765690279468674
      0.028523734300342569 0.016229906994659721 0.017686973444169696
      0.033405127587591531 -0.013776198668083038 -0.008087081129858292
      0.048626008605760496 -0.08380360349289992 -0.036298047123945028
      -0.023679520440285984 0.010471730620127033 -0.031101695948357488
      0.09637297595744701 0.036305795011539611 0.051566329504236015
      -0.061039486800702661 0.080290709098866264 -0.012592380487106191
      -0.024865221215973933 0.038680991979540488 0.082410236076918358
      -0.037100741933769325 -0.027287172168241298 -0.082075516520212777
      -0.00095904157403213833 0.028013703264500988 0.061508401633987138
      0.041472534812885549 -0.03667800263406356 -0.078380662085255015
      -0.050528927348062497 -0.021983171233961443 0.057210429070959849
      0.056027727390550217 -0.00042939100926763369 0.033691910690689393
      0.017494807911738644 0.0067697176073501421 -0.027286033813834504
      0.040134629286773318 0.13056402890585503 0.052400573304910075
      0.021736279799463763 -0.014814543585425232 -0.026891497044979604
      0.036040331788035576 -0.02858993518698667 0.0013672929089688568
      0.077350195807093056 0.047785833518585993 0.073690963948716798
      0.005320673817366884 -0.036870405768091516 -0.039155024548622026
      -0.058617700749940556 -0.014341074606753625 -0.089101597057624396
      -0.0031119342230000856 0.038780327689045109 -0.077873209206168234
      0.012665640627172127 0.018963186749161514 0.025286677973249211
      -0.013050693534792953 -0.0057795360461618235 0.05630429636510835
      -0.090922227767640543 0.028603876896849501 0.04896123148993977
      -0.09770667646499305 -0.012976541654032994 0.029353615542458623
      -0.008304134617526748 -0.017723409889506256 -0.023967377501070745
      -0.001737539659135345 0.010931470518170157 -0.026488861765320244
      -0.01087545488627656 0.067815430801369384 -0.087273195823448252
      0.04976100214656496 -0.063632523497773735 0.030794177435881264
      -0.022102320889319321 -0.041713746552569646 0.013874532807266011
      -0.13135221800015279 -0.021720924188438427 0.0038032577473133562
      -0.081812491605344081 -0.10704804136630414 0.050993929675917954
      0.016501073463606686 -0.079162877506877477 0.035200560302651319
      -0.0024513651691538312 -0.0092258026596167778 0.026782448272317613
      -0.10714527275383751 0.082340082853448709 0.0134582796531479
      -0.0093093621158647135 0.015528757347336797 0.07153951279930007
      0.051562970135687392 0.053489905463164573 -0.093836629985559875
      0.037128035905621797 -0.084178283264334477 0.064646210786185321
      -0.1062595620698467 -0.029782039618000099 0.078538568961270636
      0.080146021024890546 0.082505396430165232 -0.0036818750515132783
      -0.056232282205261719 -0.033047796206442201 0.098961266117333829
      0.095252881352069135 -0.011648599036739352 0.0069589074316429508
      0.02426286032130974 0.036312965714424689 0.017327253084833311
      0.089458724561578162 -0.029902743663203921 0.0084349356336110987
      0.05977972400863861 -0.03402424507005658 0.078792303506791533
      -0.022945690303102496 0.071688512334267304 -0.05079533995540661
      0.044855853497201982 0.01199561266387213 -0.073101360873616933
      0.0328967593646333 -0.032438883761799722 0.044931449804225157
      0.064519387453677399 -0.12308707023584033 0.018479598133194074
      -0.033599097878280672 0.12223341720863423 0.021224651779698168
      -0.024315031841923945 -0.066773146065418842 0.087858973515867828
      0.04985045076090814 0.1054918212302529 0.19565757386941801
      0.018272121529034537 -0.075235138754632003 -0.023400989549254302
      -0.049400834329027102 -0.02424948100086621 0.036592869353626482
      0.039208579715285713 0.092758799798043537 0.098151542922792628
      -0.012127498453631983 0.017933478541759949 0.04516320475469237
      0.023392030326767267 0.052340055644816204 0.020131944195951448
      -0.0050607532620745629 -0.031009110614650948 -0.073315275188118631
      0.048767947478184172 0.039673073627641789 -0.059050296362850786
      -0.022273853714929053 -0.12644568417582688 -0.0078230365563973555
      -0.071070874066596637 0.033986528859037947 0.067769877152787331
      -0.060775795040822193 -0.019714965812271317 0.0061199165412072288
      -0.034537108408997097 0.012249244006434703 0.00082231198005394994
      -0.013651203160510538 -0.055239346693414036 -0.085575951417193846
      -0.057551226002583382 0.013331336792530136 -0.033687794483612303
      -0.0007249461169675039 0.0038664845137799278 0.018287872914503477
      0.0055313778532234794 0.016665964459022624 -0.021301294939654037
      0.043043044883299311 0.0077312248508682553 0.0028237632048519049
      -0.067806278433037354 0.01274233444450051 0.0039426915358021656
      0.08458871234724348 0.0069062809777372825 -0.066766273827711567
      -0.064252695672858823 -0.024761976821618029 -0.157955130615692
      -0.037518603991486654 0.028253986993857599 0.061509712170595733
      -0.04878064916888375 -0.03847648251161865 -0.034577291991414252
      0.1534392290962831 -0.043706955381478702 0.070160044217545681
      -0.095162846395280096 0.048484030852509373 0.035458383570323784
      0.071625672831390069 0.084147126280028281 -0.015420342214508064
      0.029550977138856741 -0.08357517569233347 0.15243001593218949
      -0.06830866127668378 -0.00060278806244564538 0.016517041260730923
      0.014150511233039894 -0.035500454542170198 0.0092712698934022432
      0.024445011411935558 0.04867600102426544 -0.038950454969608424
      -0.038365522085615285 0.035679140294596387 -0.03635309831361707
      0.012202220916662511 0.029391987065202151 0.058868129542310084
      -0.091436679714520533 -0.070568721431919765 -0.0073113765015407842
      -0.084269070520373524 0.0061225477161208353 -0.018397955932810649
      -0.075344433012070472 0.11727142533703938 -0.014470463915329884
      -0.013160164671388115 -0.019647357766412004 0.076048689774485548
      -0.054748071116708846 -0.024552072712525418 0.00037536658832630865
      -0.0094180450676215662 -0.10875736022683635 0.011881192183242063
      0.024224006491433657 -0.017372066140356409 0.097421155003411253
      0.02502344958575833 -0.037434934823235455 0.030976635764736752
      0.025727615503716356 -0.033218536637872824 -0.00024883829631292768
      0.041730074847811119 -0.09210894890400291 -0.026634136773554931
      -0.0011882840578471385 -0.020023454599223993 0.026259693794598481
      -0.086835283602652025 0.07840260775827694 0.059082894301260645
      -0.035877967347761788 0.037978484512699751 0.1369284577950993
      -0.09111674933219302 0.076658397629373362 -0.10101784434243828
      -0.047431630988524438 -0.05164119133963041 0.0073964513954869176
      -0.048126864097593355 -0.093514808842476885 -0.056837541764085744
      -0.059527294191582134 -0.015367234725994303 -0.037179431872190166
      -0.043836738894635047 -0.049513599122140331 0.038887794415859663
      0.054652035453006717 0.051531890489430965 0.050872445082894638
      -0.013832766512393553 -0.044585923631095883 0.034795972462277565
      0.052696459189881625 0.066808760200368328 -0.017324777521393962
      -0.073370070697389767 0.13752658539736154 -0.053694455043383965
      0.0600603675095552 0.044922967947086556 0.0059180117091709866
      -0.0099864949112536874 0.062193452040928174 0.0031922033495159065
      0.0071341817159490022 -0.029370563641778733 0.10978656274526621
      0.012839308196920779 0.068590712822543504 0.057187938649227915
      -0.016285467093653968 -0.058891373426932299 0.093479223062173281
      -0.053924333159986411 -0.0049362447501893666 0.066991512647648729
      -0.064921065001361661 -0.072618890624756988
      -0.00060245147601537181 0.013582027786084902 -0.067953363421829921
      0.021572931874040253 0.00014140093777657191 0.056788260229881586
      -0.030482849720364021 -0.056873282125928619 0.01502473527054133
      -0.083024792731328095 -0.081974304359441724 0.016934253700036407
      -0.03845143848960849 -0.10261595306808172 0.066500408407889525
      0.0068901982606888231 0.095449032957600072 0.014970936924872275
      -0.0058108444838418849 -0.02373793189645328 0.038553672924275952
      0.0097923282690304918 -0.035521240226373499 0.074664631821349706
      -0.067849064960875616 -0.051424042689591144 -0.0032385095843538549
      0.019261226989131328 -0.006798992251044288 0.0075984324984266832
      -0.043572995376763166 -0.0010052327640346387 0.15477561905175719
      0.069101179369451607 -0.042353355716392725 0.094604449325448176
      -0.11743643867480184 -0.049419948507362817 -0.0269657973809528
      -0.069676318137809418 0.063929025993628527 0.055943884322251912
      -0.11747256418566784 0.048221938941332435 -0.063265755888226485
      0.00077182518737494332 0.097391961649241007 -0.018100759689198716
      -0.00059816225916218668 -0.008010397495554664
      -0.037603397033722716 -0.054151004116519186 -0.014872072418380513
      0.031763323141246663 -0.16760689412887425 0.039733552229406957
      0.029412846618076059 -0.13032763792843546 -0.032665361617577923
      -0.0065159909547596977 0.055049853384427819 -0.12830217302324334
      0.010946259869897251 -0.0034892342545170094 -0.079237616935717611
      -0.030761950337551996 -0.10717574253247544 0.070739651528736236
      0.049340096490141525 -0.010326232242349478 0.059607954326209099
      -0.04925983162784605 0.0088818234819547995 0.036696599709605406
      0.038092845475349961 -0.0046339047592070361 0.031194975597718621
      -0.020080406747407849 0.013679481516898118 0.1205967905707875
      0.039544140629915868 -0.13215195266912902 -0.093656843291488281
      0.048302765551476584 -0.006550512126693539 -0.0042861319622260578
      0.077524447373010411 -0.015042600396762426 -0.0034714895576120055
      -0.036083052684327113 -0.060261624031110211 0.16180228004585046
      -0.040471875129768624 -0.13813717696098612 0.076532771810934638
      0.11320114758580535 0.041357660556677507 -0.046460157014040528
      -0.071421585110313879 0.016366025719029099 0.069130094434145584
      -0.09455180093545261 -0.05755040364506292 0.0064300936255317701
      0.010220407641541722 -0.057772080006065277 0.024860492692459726
      -0.050205215526514968 0.028455347449953827 0.035633326624711567
      -0.058373515045716126 -0.058864260365158412 -0.056197593121814667
      0.085696549148263954 -0.0099999952579709513 0.00249613395588492
      0.0453212276170624 -0.055754051992936912 -0.045625678740958894
      0.040833785470810582 -0.038659521805229746 -0.024337267601964332
      0.064038303239414285 -0.10742421513483588 -0.11767357605211724
      0.070937545359912424 -0.12305911932640484 -0.078622014745672195
      0.11680884233657751 -0.041933421552795981 0.018903169358608161
      0.081577410198713701 -0.17307749197045472 0.099010225269066554
      -0.017808960457920062 0.020419047431011399 -0.089215729913167452
      0.0042747992535121836 -0.10243038542728133 -0.076079045476738202
      -0.041220858085918216 -0.10637824099821318 0.019289760636220503
      0.0014963198429115002 0.061607601912065067 -0.066665464193771146
      -0.095016575018873381 -0.020048462639643872 -0.011388315413316825
      -0.072341442258886654 -0.017799811778082104 0.0023736250824244898
      -0.100902568583604 -0.0036308798764655339 -0.016006734958590424
      0.062931522190620981 -0.019197549762289177 0.0075199829556881802
      -0.027869320099203558 -0.040123680197650065 0.055805794617982803
      0.023277110197321156 -0.051441949042484975 -0.063490920215830512
      -0.10254185459261256 0.075036968212380414 -0.14818898122356675
      0.037885132943421343 0.065183229828023936 0.10583414464538679
      0.013195342942423902 -0.012428294702392869 -0.12183926704839371
      0.050707405658591213 0.065987345782297147 0.008199974890708386
      0.045295283200147606 0.1066379285449806 0.041754528807904812
      -0.048555258006325201 0.061722594923871638 0.012575123653058008
      -0.062732366526188049 0.080326759255184621 0.10671318441281161
      -0.040201165472203419 -0.096669241077396675 0.090291892456705922
      0.030361541393731362 -0.06948142822522943 0.12727974946306764
      0.1066169393551982 -0.012091594706762224 -0.16779619399788806
      -0.22537741374491932 -0.040572633563803813 0.040613138440248185
      -0.038792342628524067 -0.03369394613186575 -0.092775837602818434
      0.037680041178210097 -0.012265635401024454 -0.0039883888339338498
      -0.039333058638170867 0.060216516099638774 -0.080031037794250609
      0.088183377676830446 0.09205056092545566 -0.049297663124458067
      -0.082681989024801061 -0.06439004279562581 -0.0064811741636663497
      0.0013475336097728181 -0.015947958645798763 0.072921044817778696
      0.1079704291271274 -0.063813759180844629 -0.10862761515471817
      -0.060359838826191559 0.10150162862324419 0.013265202001785692
      -0.024816775029858924 -0.028666512917102836 0.068730550518428746
      0.056085938235311973 0.073415810048107238 -0.032325426953236806
      -0.12377180824059876 -0.01345972973602645 0.08525036355448902
      0.10897269440264536 0.092774952691888471 -0.0038363392198210882
      0.024729764464476483 -0.04811710836586687 0.073538931996292772
      -0.0082064262007597553 -0.085276840853151292 -0.019695231339391835
      -0.01915272348267848 0.053164018557733186 -0.023892903883703933
      -0.062656801183333014 0.058279137366692164 0.086522829019140254
      0.02150419483402782 0.066630462876223581 0.067238815115653827
      0.051236559978445312 -0.10864022301215051 -0.025982105391552403
      0.13335185124688867 0.033495138300571124 -0.021187770849030455
      0.046606058954486239 0.046451809642511548 -0.092751100216980728
      -0.012895504516134597 -0.075815430461672426 -0.075228917851466737
      0.10996280685424832 -0.074910508588100944 -0.017412753968643759
      -0.098025433918306829 0.11434381617563348 -0.030560337074562592
      0.0067909917234811506 0.034166150996081716 -0.009202641972240912
      0.027681513412795421 -0.080305047604373792 -0.072090447083663023
      0.0059374556554001061 -0.0653599732389291 0.0026854547098880111
      -0.060174777068938659 -0.047668064641707732 0.051855355400147608
      -0.042860123013419009 -0.013783315857719792 -0.056608415625068118
      0.017393832490810307 -0.10080610982198818 0.065085511119767014
      -0.015401795038910726 -0.012596360873177554 0.064838041010206751
      0.059858226405999033 0.084274614947328394 0.035547653859953399
      -0.040608557120686374 0.12195862206166506 -0.050530261555653863
      0.068169819349200772 0.010495358620809282 -0.12995221928430245
      0.043551488736867761 0.059444648257872927 0.032393640104472869
      0.060905746765879482 0.049817048320862756 -0.07134484412164746
      0.078586838085408395 0.045566622594637125 -0.02397503465946647
      -0.09768475412467667 0.063388893560938089 -0.024460729387691206
      -0.080810451031568725 0.081610886945528233 -0.0072709500161355477
      -0.035498018004252438 -0.12548407381906992 -0.14372418142197177
      0.11097003187262391 -0.027911927376905447 0.05088422717081207
      -0.0048584540365006418 -0.023789422366400189 -0.099895818461988292
      -0.060199995322413949 0.056398999034391779 0.046877393314600106
      0.026943759837441867 0.036322518811969649 -0.07948491347715389
      0.085973893464230067 -0.011145589171689506 -0.016292164631235825
      0.051989499494234002 -0.0057462317136917811 -0.12763795684172105
      0.0088221516437888437 0.095965929834128091 0.039946069981686698
      0.10907912353490035 -0.032782965770261359 -0.10941390094852399
      -0.10852691292398078 0.0047136106812274686 0.074833477152763658
      0.095945851244041827 -0.023783993124890594 -0.078004776456479463
      0.0021503394535511648 0.091923368366236449 0.021821707115961493
      -0.072496475483112333 0.014010013444548256 -0.028555998195232853
      0.036142061724105883 -0.02349108444391021 0.027508549930943576
      0.17433377327301994 0.12727904510409468 0.10185312075378691
      -0.18304444696826846 0.058840112185981078 -0.019523891441926542
      0.059567061655851704 -0.05520583471053947 -0.097878048992992656
      0.11200558849325826 -0.026793069919583187 0.0029924207725524586
      0.06679388621739013 0.11019880153586675 0.19630303917320879
      0.16476910384943122 -0.085640498153520914 0.08007137617207144
      -0.029520915462808869 0.016383045687833213 0.041701192252479743
      -0.020774164309976209 0.032194070883695101 0.061879233416996159
      0.017156258177471316 0.045730966349851375 -0.038553313716353704
      0.026127698262956727 0.096791608613878741 -0.021834954557420051
      -0.11922155766027871 -0.16713747055236713 0.030897750573166152
      -0.13121478083372551 0.044846253189208408 0.12252480031804669
      0.0084105084728256854 0.031545555102351013 -0.10666838040297739
      -0.067788245872194827 -0.11401925513042271 0.10900288531082715
      -0.026872969944182659 -0.092496837447682015 -0.041036317613669451
      0.10845540637215594 0.064184495378532061 2.7500826348363615e-05
      0.087993936172918411 -0.036896185422212992 -0.026352843203855534
      0.01583502065929954 -0.013931092727101697 0.06927434042827732
      0.06413289829465002 -0.19012804825443913 -0.12293860643506804
      0.13172233217990548 0.11050785540043695 -0.010787204452614779
      0.09151535490868791 0.011325096972354769 -0.01680256659937732
      -0.0011520158859634325 -0.046485891499086933 0.017832269094277077
      0.094356869813020286 -0.18706085885103751 -0.12871474986330578
      0.11093766200497976 -0.086069306969410633 0.1393351441791344
      0.033025695062791356 -0.085138518440080885 0.089710084239566501
      0.061774365491597386 -0.15872969623031385 0.0096892871558606538
      0.068929259125177708 -0.025051751560378283 -0.019594725201911418
      -0.093848531932809329 0.02040942218433877 -0.038102414761476341
      -0.030633465333765909 -0.11076153459107042 0.066361254712704057
      0.079947954704601046 -0.043517027827071862 -0.044204958962161249
      -0.0091030720955978077 0.006357472568388034 -0.059001010251387244
      -0.18505137849460096 -0.011415529713446056 -0.035802479089185733
      0.050415958231529487 -0.0062159996735783154 0.18951909342347084
      0.10682030575774649 0.032356337299242421 -0.029761063233363423
      -0.022673550278404789 0.025484206467804069 -0.048877544844718353
      0.051230606059715834 0.070638147635748313 -0.033185689649347941
      0.058115860463843483 0.005547401296410911 0.018950939750148544
      0.13533875796432673 -0.093178968545118909 0.11256332426108595
      -0.083139642577546705 -0.034903595891769397 -0.03606232907580835
      -0.044511936966827079 0.08131319207036157 0.12556965783061
      0.046600886739937432 0.037229368537854329 0.10103415832386087
      -0.036248411320804426 0.018826636142931518 0.01921890094810675
      -0.022820308387239904 0.063205842954390357 0.066926147426656729
      -0.022640096785076041 0.052858675090025467 -0.050751135707366134
      0.07038430649910335 0.012671081072160306 0.040195344260193354
      -0.051565629422835012 -0.040091146774789109 0.058527225059196435
      0.11521614738924377 -0.11709188675053109 -0.081085991274863531
      0.034923043891710477 0.031710021131945092 0.032812536361632359
      -0.023765838502310805 0.0079501161966724181 0.016264074073145819
      0.039173714511211766 0.02992137288530242 0.0016736826814599682
      0.03127815860075972 -0.0095234739632876469 0.023084055673616159
      -0.063292605230856724 -0.0062613270237469624 0.025327557561831741
      -0.079865685689036736 -0.030673863539075922 -0.074384767004799346
      -0.14026546750852573 0.021182392659841041 -0.10311360962889407
      0.014098653749031203 0.084810901770950603 -0.0050713200424794356
      -0.010743680044367602 -0.036121356755160636 -0.032910620188634963
      0.044106454500793139 -0.011462291481801178 0.0024241693312600648
      -0.075799471946867744 -0.011340814325094621 0.09083640035969695
      0.057045416228990335 0.0014532912126028028 0.0052186609385041138
      0.089899105477132382 -0.1234630805691001 -0.079188501062449443
      -0.03422729811494616 0.061493123055166805 -0.027652199016079286
      -0.14418606679469576 -0.0099982455988896594 0.039454467821214312
      0.065124475830354037 0.037465957821569446 -0.11986472858633868
      0.036757479808370769 -0.044917726038329393 -0.015433583512655748
      -0.04952722088467526 0.010861192286860059 0.069387320885797438
      -0.053890396760103501 0.047883589746749528 -0.044431132727869936
      -0.008248514148395527 0.016821454477406 0.059680303358225988
      -0.023645072213363389 0.11444804532594148 0.16555740266036442
      -0.016947462510710817 -0.10394122822046843 0.081349736476947154
      -0.052624673343879207 -0.047815645365204648 0.045302594875587958
      0.0091708343762848237 -0.050439691843273446 0.031455170459381454
      0.077027520089109833 -0.00673110255889749 -0.024572101655055665
      -0.063002687317518541 -0.045154460832327464 0.058102065523588632
      -0.025870941201433739 0.03157230135044594 -0.058079267982757442
      -0.094242717485505278 0.039602642320818955 0.031060742583135747
      0.17226462051180311 0.05379370221685037 -0.0010003287639730647
      -0.041754518802368218 0.0019228312491252435 -0.024133946701936939
      -0.015213503063183052 0.068233116808784952 0.018425293717641011
      -0.078315421343459396 -0.021010798625409017 -0.0068568847334717188
      0.05709384145469612 -0.0069250566983684132 -0.016167185451070917
      -0.050124687881217163 0.030810147528608715 -0.059229692742060969
      0.080691614607412074 0.12327227834562302 -0.16163757924700575
      -0.010899548158137545 0.0039178363918810624 0.021067787512874719
      0.0061426620553560974 -0.095997491000423651 -0.035371865036783683
      -0.1950392210544947 -0.13628004139427202 0.069414388679427536
      0.16081744363706441 -0.039105771372325793 0.00096819436443647592
      -0.090796190166997096 0.12315450677681022 0.057241957811828031
      0.15612419061622093 0.047415586778011852 0.014206680800641172
      -0.10842396643311157 0.045164657894062057 0.018035001535150315
      0.048598042440669592 0.04698095114397171 0.059373317895955575
      0.13741645496388907 0.041593435885583771 -0.014302358956615179
      0.0070305161178503741 0.0043609545063326236 0.18869655720814199
      0.021507022373656134 0.090966566027764983 0.081161739660587623
      -0.093434582231794031 -0.11281733954118292 0.089046262731003328
      -0.014339223198310659 0.0012019363895624953 0.071260678588959875
      -0.16299975583559717 -0.072140687993583918 0.047674176365537724
      0.082107202355781131 -0.063702974010716049 -0.057342585800174387
      -0.037830639975645765 0.093282742977777652 -0.033392703648569437
      0.049193317181719966 -0.036315886661452391 -0.004304041998295819
      -0.14947172651312488 -0.035969302680274144 0.05658792393518973
      -0.05883379768831911 0.065370049900836266 -0.15050520348600521
      0.21464310777308604 -0.17238342780928073 0.083989886933714078
      -0.10304848254755937 -0.031791777315956872 -0.18076956393097809
      -0.13008103554712461 -0.016369727269658543 -0.0055449976615093693
      0.040520289747444496 -0.079301570616454958 0.0096831015398561263
      -0.027870403587460207 0.041900156409105174 -0.11494949217536428
      0.025269553297305184 0.22212561761700791 0.049660923943994843
      -0.114008495918793 0.041479813021557566 -0.072703571862484426
      -0.013749401998323701 -0.0250226506417002 -0.10953369069808086
      -0.0017332877086388846 0.035972227452601396 -0.038698264338754264
      0.17093530177540961 0.051164026247303124 0.093889409693292097
      0.17378934353183126 -0.044820416379371099 -0.048551627205366987
      -0.070217386279254806 -0.046807298280327342 -0.072374282480080418
      -0.010330370553816358 -0.041886721393837631 -0.19069780407191311
      0.0054732272609337605 0.0024761173260019727 -0.10695103582766292
      -0.015222876668336601 -0.028506364460349279 -0.025584878695380786
      -0.12640772166223702 -0.039550151695133838 -0.047780066667907732
      -0.03005216597976124 -0.1243811220888858 -0.12248493786833048
      -0.03196522684445624 -0.07037592901150562 -0.0064726238212604644
      0.14771671393368174 0.026415240288914687 0.034350146507506708
      0.059502827253855556 -0.058093982742885006 0.0015615034572465146
      -0.018812154254443471 -0.02912721247932545 0.018711939154452361
      0.12566962330607701 -0.052073499751277626 -0.10587680605021854
      -0.13858063043416047 0.076401827944937981 0.048591988844748857
      0.057783402975466032 0.076749149592191021 -0.022364759019204837
      -0.077017132123895202 -0.012143512901150705 -0.099441164072810867
      0.16166054645913383 0.027478960575765168 0.010717685513894959
      -0.078178441466218107 -0.040882627569732162 0.068598557288319165
      -0.13608233327257194 -0.030358899877187318 -0.061263232745120896
      0.054187404621684289 -0.021728558647519412 0.047227456740348228
      -0.071793516111629443 0.061415044699309397 0.037178972336679654
      -0.028509191668991976 0.14582175081664139 -0.024403674980698054
      -0.046172599074261543 -0.061877983476982326 -0.0084699228097983754
      -0.11564395772642316 -0.0074503839645811689 -0.019359642849159045
      0.013696128905715622 -0.0389394462978742 0.005504259476282536
      0.054935638286868468 -0.076881340716651689 -0.15140078676890165
      0.061361549701164128 -0.14284414248812963 0.096510584997321569
      0.012180125274767029 -0.11546502513641652 -0.033850537455305953
      0.038916090416416915 0.042222803357182599 0.066687662912479656
      -0.052101554503201961 -0.063253585278509189 -0.10600762291048435
      -0.063442469164995852 -0.067568469093156711 0.16154673603803438
      0.050252454819200945 0.11136376052923129 -0.077777707848535327
      0.02502248955022842 0.085447458766097689 0.016653867923258351
      0.043162677639973106 0.00417284517341513 0.065875392843949304
      0.016452201243912251 -0.033189350596953576 -0.038130562679414767
      0.031749725859618529 0.030086466839291944 -0.022634570482161019
      -0.062441231619181012 0.13830960893318853 0.037952780357563942
      -0.014801507777001234 -0.14151317222079968 0.009097451867945975
      -0.042140373231781679 -0.052474605426690614 0.01078512403053606
      -0.012074387244085882 0.0035393107909647567 0.032686228179595454
      -0.073468261753702219 0.16670526195463664 -0.027959426831369327
      0.032579077620421212 0.059766214779236632 -0.14308189379361477
      -0.10167915627461549 -0.010075485859436233 -0.040483812626648533
      0.037868469876961901 0.048392007032395531 -0.062264750647064861
      -0.11514963651704535 -0.0051843689372876962 0.028700314934768358
      -0.047833284372122899 -0.061323558418334083 0.016247960795384382
      -0.019965477072914645 0.12770514532466415 -0.025225152645034186
      -0.10596278893485606 0.046237382754092164 0.034531697120914515
      -0.077971671433873346 -0.0080814606393323548 -0.033921775053077662
      0.027007088876317583 -0.043546121286205532 0.068469919804784382
      0.048374212934952768 0.047965940102306828 -0.1383724190919963
      -0.073752602653742561 0.070178159599081594 0.079064037176073049
      0.10202876229669422 -0.05428784353664682 0.03361759865310282
      -0.050501289655785965 -0.031750343754380586 -0.0183049987825008
      -0.058042173325893114 -0.054426110585620899 -0.065202186796646369
      -0.031172059860592221 0.081620039027614569 -0.0098831061506870505
      0.050239299231672627 0.033489871044008933 -0.00524360288846461
      -0.086706166643208848 -0.16921631158628717 -0.12583256553737115
      -0.049275040674421268 -0.073976727382856738 -0.16866558820401353
      0.035472925743991621 0.14465043607612305 0.022352979026064198
      0.038572899189100826 -0.051781479815606976 -0.10875845179771444
      0.028758119446647589 0.080699451646344858 -0.053865829877332516
      -0.13859224307890461 -0.15226371835743216 -0.020789371036947606
      0.01116949108456352 0.077763173473935132 -0.0041215730338274893
      -0.10047311397414109 -0.070440238513233028 -0.016148015314584648
      -0.10689608481968782 -0.10015640171354362 -0.063026636854881191
      -0.0011202699204551959 -0.03289640591509102 -0.088058963854602018
      -0.11828163636134269 -0.013899424704983647 -0.068938395865844701
      -0.086219002643216552 -0.033401766244930381 0.032426643824808608
      -0.0094869788848957245 -0.047159481568012203 -0.075766974424522404
      -0.018941213032747598 0.044902678100659878 0.035646973583592492
      -0.021463902837279489 -0.024826479615945998 0.053718127536076986
      0.034282777298258099 -0.099366441341743716 -0.030776785890775336
      -0.10035068122591305 -0.0042903486748175719 -0.063471318190045173
      0.014461705919880746 0.028154583404529893 0.075134904969841224
      -0.024572010851916383 0.0026964440033060261 -0.087617940115839815
      0.14510902154345712 -0.033706551948701653 0.096015673236666654
      -0.1362651765473864 0.1571795495885584 0.067240833412944748
      0.057057430793254711 0.13377741485444269 -0.067927657779143114
      0.13746917166117167 -0.014603220363133293 0.081950756495716731
      -0.11935952549910463 -0.0034111411250423622 -0.030784619432528807
      0.055072647803933839 -0.019778530801934573 -0.077974173747573858
      -0.02178678015797899 0.043124372044680635 -0.068901147529432161
      0.059278938161605045 0.085571448686533866 -0.019876823743411019
      0.088323013186141663 -0.033872808198726644 -0.012295623959390548
      0.010281960435092807 -0.17195776330905088 -0.12458100710525946
      -0.041888588010242506 -0.082858231460590931 -0.019892942443740017
      -0.02825366879281602 0.12254920534660523 0.056059826331799102
      -0.0018895559274618562 0.054763493932781515 0.098594091707502246
      0.070527519821413337 -0.053224607034910727 0.0073482287531979962
      0.16528990078537259 -0.035048838921175753 -0.032067239018872783
      0.036865518613874722 0.021289333432651755 0.16676549254635176
      0.065156994123938383 0.060136685414383911 0.0022971603574117854
      -0.024689419407448301 -0.11920750187786748 0.028805858913560446
      -0.011733781316745788 -0.065693542686322992 0.013329343881409573
      -0.0028957955566798958 0.0098029125160217917 -0.047189699999727927
      -0.074785980485393241 0.095996680997228814 0.023406274382973428
      -0.053318988174809186 -0.0097902689093001365 0.085448671861710707
      0.017160705419800113 0.061196360666090771 -0.043353693922390316
      -0.09209821457060316 -0.070096928633525984 0.03217398951328649
      0.02211263982617841 -0.080639738592187538 -0.11944686969118351
      -0.037998598654363738 -0.019837782956697653 -0.0031149169507871067
      0.019272851336504956 -0.026121001033090948 -0.03056066625495206
